{"learner":{"attributes":{"scikit_learn":"{\"_estimator_type\": \"regressor\"}"},"feature_names":[],"feature_types":[],"gradient_booster":{"model":{"gbtree_model_param":{"num_parallel_tree":"1","num_trees":"100"},"iteration_indptr":[0,1,2,3,4,5,6,7,8,9,10,11,12,13,14,15,16,17,18,19,20,21,22,23,24,25,26,27,28,29,30,31,32,33,34,35,36,37,38,39,40,41,42,43,44,45,46,47,48,49,50,51,52,53,54,55,56,57,58,59,60,61,62,63,64,65,66,67,68,69,70,71,72,73,74,75,76,77,78,79,80,81,82,83,84,85,86,87,88,89,90,91,92,93,94,95,96,97,98,99,100],"tree_info":[0,0,0,0,0,0,0,0,0,0,0,0,0,0,0,0,0,0,0,0,0,0,0,0,0,0,0,0,0,0,0,0,0,0,0,0,0,0,0,0,0,0,0,0,0,0,0,0,0,0,0,0,0,0,0,0,0,0,0,0,0,0,0,0,0,0,0,0,0,0,0,0,0,0,0,0,0,0,0,0,0,0,0,0,0,0,0,0,0,0,0,0,0,0,0,0,0,0,0,0],"trees":[{"base_weights":[2.7353634E-8,-9.252055E-1,8.15768E-1,-1.1755594E0,-3.8367465E-1,2.3142411E-1,1.1138058E0,-1.2778163E0,-9.6412426E-1,-1.3438167E-1,-4.5269278E-1,7.824717E-2,4.4829026E-1,8.745692E-1,1.56439E0,-1.472745E-1,-1.2268695E0,-7.790789E-1,-1.0450273E0,3.873823E-2,-2.234051E-1,-4.0891722E-1,-6.9324505E-1,1.3236706E-1,-7.273083E-2,5.075712E-1,3.017302E-1,9.793566E-1,5.989511E-1,1.4387363E0,1.7542332E-1,-1.0376679E0,-1.3102764E0,-6.486081E-1,-8.2875535E-2,-1.00808896E-1,-1.1877928E-1,-9.705075E-2,1.7284293E-1,-1.5879509E-1,-3.4492147E-1,-4.7962648E-1,-2.8095663E-1,-7.267949E-2,-2.1424778E-2,4.2170414E-1,9.766997E-2,-1.0273418E-1,7.953473E-2,5.38117E-1,2.8060845E-1,-2.530465E-2,3.1757438E-1,1.330674E0,9.155561E-1,5.4125446E-1,7.707558E-2,1.5704376E0,1.2850012E-1,-9.7511485E-2,-1.2019109E-1,-1.2598215E0,-1.46913E-1,-6.5817215E-2,-1.3302279E-2,-4.4571653E-2,-2.1063559E-2,6.921468E-2,2.345172E-1,-2.0574673E-1,-1.0483964E-2,-3.5614654E-2,-1.2892182E-2,-4.302223E-1,-6.457408E-1,-3.3507836E-1,-1.22591846E-1,4.3048096E-1,7.042289E-3,1.3822156E-1,-6.269276E-2,-6.7024454E-2,-2.4016601E-1,1.4637399E-1,-8.967932E-2,4.8541263E-1,6.814166E-2,3.2683134E-3,2.88887E-1,1.4816602E-1,3.734934E-1,1.3747607E-1,9.6165925E-2,9.944169E-1,7.8019327E-1,5.6420225E-1,3.775721E-1,1.6469437E-1,1.2225091E-1,-1.2266866E0,-1.5294838E-1,-1.9468613E-1,1.6593274E-2,1.7633224E-2,3.7720256E-2,2.8710562E-1,8.243694E-2,-2.4431802E-2,-1.3645941E-1,5.467069E-2,-7.4328125E-2,-4.9524613E-2,-3.7692788E-1,-2.319309E-2,-6.567721E-2,-2.393569E-1,-4.4154298E-1,-2.1261376E-1,-5.4637827E-2,3.6159244E-1,5.1516254E-2,4.4572663E-2,1.9449447E-1,4.332328E-2,-1.1684086E-1,5.8567017E-2,-1.0149164E-1,-4.7163036E-2,-2.0110519E-1,1.6031472E-1,4.1819733E-2,-5.8512687E-4,-1.0527468E-2,3.9905965E-1,5.270336E-2,3.036495E-2,1.3178086E-1,2.1564923E-2,3.887291E-2,3.8998E-2,1.49126295E-2,9.1572094E-1,1.211794E-1,6.7446366E-2,8.8863957E-1,2.6303607E-1,5.699091E-1,4.2157967E-2,4.027189E-2,-1.2776738E-1,-1.1358421E-1,-3.4466982E-3,-2.2612417E-2,5.4033934E-3,-3.6093157E-3,1.4668989E-2,-1.4369624E-3,1.9157942E-2,3.8250007E-2,8.0132484E-4,1.2938166E-2,-8.5622474E-4,-1.5191141E-2,-2.230835E-3,6.885461E-3,-1.22053865E-2,-2.128191E-3,-3.879879E-2,-2.856273E-2,-3.8241674E-3,-2.5354614E-2,-3.9354943E-2,-5.5672735E-2,-8.416379E-3,-2.3578193E-2,-9.478039E-4,-1.8101089E-2,4.341317E-2,2.7101038E-2,1.2280515E-2,-1.264619E-3,1.440156E-2,2.2992244E-2,-8.7160006E-4,7.874247E-3,-3.721099E-2,-9.988467E-3,4.4357874E-3,1.1009041E-2,-8.1823915E-3,-2.6486382E-2,-4.715419E-3,-2.0738736E-2,1.8243192E-2,7.047236E-3,5.264807E-3,1.008153E-3,4.3999955E-2,2.5184155E-2,1.320839E-5,1.7561978E-2,-9.072002E-3,8.261114E-3,1.7503286E-2,9.1787174E-2,1.5572858E-2,8.943543E-2,-1.0438443E-3,3.340143E-2,6.1462708E-2,5.2481707E-2,-4.244232E-3,1.0567928E-2],"categories":[],"categories_nodes":[],"categories_segments":[],"categories_sizes":[],"default_left":[0,0,0,0,0,0,0,0,0,0,0,0,0,0,0,0,0,0,0,0,0,0,0,0,0,0,0,0,0,0,0,0,0,0,0,0,0,0,0,0,0,0,0,0,0,0,0,0,0,0,0,0,0,0,0,0,0,0,0,0,0,0,0,0,0,0,0,0,0,0,0,0,0,0,0,0,0,0,0,0,0,0,0,0,0,0,0,0,0,0,0,0,0,0,0,0,0,0,0,0,0,0,0,0,0,0,0,0,0,0,0,0,0,0,0,0,0,0,0,0,0,0,0,0,0,0,0,0,0,0,0,0,0,0,0,0,0,0,0,0,0,0,0,0,0,0,0,0,0,0,0,0,0,0,0,0,0,0,0,0,0,0,0,0,0,0,0,0,0,0,0,0,0,0,0,0,0,0,0,0,0,0,0,0,0,0,0,0,0,0,0,0,0,0,0,0,0,0,0,0,0,0,0,0,0,0,0,0,0,0,0,0,0],"id":0,"left_children":[1,3,5,7,9,11,13,15,17,19,21,23,25,27,29,-1,31,33,35,37,39,41,43,45,47,49,51,53,55,57,-1,59,61,63,-1,-1,-1,65,67,69,71,73,75,-1,-1,77,79,81,83,85,87,-1,89,91,93,95,-1,97,-1,-1,-1,99,-1,-1,-1,101,-1,103,105,107,109,-1,-1,111,113,115,117,119,-1,121,123,125,127,129,131,133,-1,-1,135,137,139,-1,-1,141,143,145,147,-1,-1,149,-1,151,153,-1,155,157,159,-1,161,163,165,-1,167,-1,-1,169,171,173,175,177,-1,179,181,183,185,187,189,-1,191,193,195,-1,-1,197,-1,-1,199,-1,201,-1,-1,203,-1,-1,205,207,209,211,-1,-1,-1,-1,-1,-1,-1,-1,-1,-1,-1,-1,-1,-1,-1,-1,-1,-1,-1,-1,-1,-1,-1,-1,-1,-1,-1,-1,-1,-1,-1,-1,-1,-1,-1,-1,-1,-1,-1,-1,-1,-1,-1,-1,-1,-1,-1,-1,-1,-1,-1,-1,-1,-1,-1,-1,-1,-1,-1,-1,-1,-1,-1,-1,-1],"loss_changes":[3.013729E3,2.5320862E2,3.6930237E2,2.6420898E1,1.0142174E1,2.381609E1,1.500857E2,6.723877E0,5.4885254E0,2.0121782E0,4.602585E0,3.4577525E0,2.42725E0,2.5984253E1,9.069214E0,0E0,9.481689E0,3.1799316E-1,3.3190918E-1,8.362219E-1,6.204295E-1,3.4392014E0,9.6920395E-1,3.0809898E0,5.198404E-1,1.3048782E0,8.538809E-1,1.3687134E1,2.1204376E0,4.015625E0,0E0,1.0368805E0,1.9402466E0,1.1462402E-1,0E0,0E0,0E0,1.2771069E-1,1.307655E-1,4.0172303E-1,2.4398804E-2,1.7984924E0,1.1845722E0,0E0,0E0,7.1427345E-2,1.8229928E0,4.4522232E-1,2.2801942E-1,1.0588951E0,4.597473E-2,0E0,7.593508E-1,3.0480957E-1,5.2661133E0,5.194168E-1,0E0,2.1391296E0,0E0,0E0,0E0,1.394104E0,0E0,0E0,0E0,1.5932009E-1,0E0,2.7084753E-2,8.8299096E-2,8.425081E-2,6.645974E-2,0E0,0E0,4.994774E-1,1.0330391E-1,9.745531E-1,2.208426E-1,3.9625168E-4,0E0,1.1665173E0,3.3227423E-1,3.3493164E-1,7.693529E-2,1.3701558E-2,7.2279833E-3,2.8566742E-1,0E0,0E0,2.0286083E-2,1.6125244E-1,1.7858219E-1,0E0,0E0,4.9460754E0,1.8429108E0,1.4055634E-1,2.1075654E-1,0E0,0E0,8.19397E-2,0E0,1.7391056E-2,2.7594246E-2,0E0,5.319382E-2,1.7847598E-2,1.6432226E-2,0E0,3.4272105E-2,1.0270944E-2,1.7655816E-2,0E0,3.2863617E-3,0E0,0E0,1.5581703E-1,5.1778793E-2,2.7770936E-2,1.2954491E-1,2.0331383E-2,0E0,3.820448E-1,2.1547031E-1,3.7550095E-2,1.2731075E-1,7.562384E-3,1.711173E-1,0E0,7.6293945E-3,1.0988325E-2,5.0024316E-4,0E0,0E0,1.8451738E-1,0E0,0E0,2.3062162E-2,0E0,6.417614E-2,0E0,0E0,2.5993347E-1,0E0,0E0,2.8793335E-1,1.0054028E-1,1.014328E-2,2.0607037E-2,0E0,0E0,0E0,0E0,0E0,0E0,0E0,0E0,0E0,0E0,0E0,0E0,0E0,0E0,0E0,0E0,0E0,0E0,0E0,0E0,0E0,0E0,0E0,0E0,0E0,0E0,0E0,0E0,0E0,0E0,0E0,0E0,0E0,0E0,0E0,0E0,0E0,0E0,0E0,0E0,0E0,0E0,0E0,0E0,0E0,0E0,0E0,0E0,0E0,0E0,0E0,0E0,0E0,0E0,0E0,0E0,0E0,0E0,0E0,0E0,0E0,0E0,0E0,0E0,0E0],"parents":[2147483647,0,0,1,1,2,2,3,3,4,4,5,5,6,6,7,7,8,8,9,9,10,10,11,11,12,12,13,13,14,14,16,16,17,17,18,18,19,19,20,20,21,21,22,22,23,23,24,24,25,25,26,26,27,27,28,28,29,29,31,31,32,32,33,33,37,37,38,38,39,39,40,40,41,41,42,42,45,45,46,46,47,47,48,48,49,49,50,50,52,52,53,53,54,54,55,55,57,57,61,61,65,65,67,67,68,68,69,69,70,70,73,73,74,74,75,75,76,76,77,77,79,79,80,80,81,81,82,82,83,83,84,84,85,85,88,88,89,89,90,90,93,93,94,94,95,95,96,96,99,99,101,101,102,102,104,104,105,105,106,106,108,108,109,109,110,110,112,112,115,115,116,116,117,117,118,118,119,119,121,121,122,122,123,123,124,124,125,125,126,126,128,128,129,129,130,130,133,133,136,136,138,138,141,141,144,144,145,145,146,146,147,147],"right_children":[2,4,6,8,10,12,14,16,18,20,22,24,26,28,30,-1,32,34,36,38,40,42,44,46,48,50,52,54,56,58,-1,60,62,64,-1,-1,-1,66,68,70,72,74,76,-1,-1,78,80,82,84,86,88,-1,90,92,94,96,-1,98,-1,-1,-1,100,-1,-1,-1,102,-1,104,106,108,110,-1,-1,112,114,116,118,120,-1,122,124,126,128,130,132,134,-1,-1,136,138,140,-1,-1,142,144,146,148,-1,-1,150,-1,152,154,-1,156,158,160,-1,162,164,166,-1,168,-1,-1,170,172,174,176,178,-1,180,182,184,186,188,190,-1,192,194,196,-1,-1,198,-1,-1,200,-1,202,-1,-1,204,-1,-1,206,208,210,212,-1,-1,-1,-1,-1,-1,-1,-1,-1,-1,-1,-1,-1,-1,-1,-1,-1,-1,-1,-1,-1,-1,-1,-1,-1,-1,-1,-1,-1,-1,-1,-1,-1,-1,-1,-1,-1,-1,-1,-1,-1,-1,-1,-1,-1,-1,-1,-1,-1,-1,-1,-1,-1,-1,-1,-1,-1,-1,-1,-1,-1,-1,-1,-1,-1],"split_conditions":[-2.524832E-1,-7.1371144E-1,3.7690675E-1,-9.2753917E-1,-1.9371147E-1,2.9430548E-2,1.18978E0,-1.0726489E0,-1.9371147E-1,2.5569439E-2,4.5450586E-1,4.573761E-1,4.5450586E-1,4.5450586E-1,1.9419873E0,-1.472745E-1,-1.9371147E-1,-5.6102335E-2,4.2351806E-1,-5.379138E-1,4.573761E-1,-5.226334E-1,-3.5575172E-1,-1.9371147E-1,-7.2713286E-2,1.5970964E0,1.3287951E0,-6.6605514E-1,8.011458E-1,3.7411702E-1,1.7542332E-1,3.7411702E-1,3.7411702E-1,-7.491385E-1,-8.2875535E-2,-1.00808896E-1,-1.1877928E-1,-9.829989E-1,-4.923762E-1,-4.923762E-1,-1.1872953E0,1.7063852E-1,-3.9035267E-1,-7.267949E-2,-2.1424778E-2,4.2898703E-1,4.5450586E-1,1.8916551E0,4.5450586E-1,2.604877E-1,6.1152957E-2,-2.530465E-2,1.6835034E-1,3.7411702E-1,3.7411702E-1,1.5970964E0,7.707558E-2,4.50959E-1,1.2850012E-1,-9.7511485E-2,-1.2019109E-1,4.5450586E-1,-1.46913E-1,-6.5817215E-2,-1.3302279E-2,-6.604442E-1,-2.1063559E-2,-5.3086746E-1,-1.0652744E0,-5.800652E-1,7.483185E-2,-3.5614654E-2,-1.2892182E-2,-6.083189E-1,-5.5448342E-2,-1.4084705E-2,5.378007E-2,-1.6582356E-1,7.042289E-3,-1.8659966E-1,-1.0652744E0,-5.1395543E-2,-2.2733654E-1,1.8612279E0,4.774412E-1,1.6835034E-1,6.814166E-2,3.2683134E-3,2.0328138E0,2.5569439E-2,5.0072217E-1,1.3747607E-1,9.6165925E-2,7.794883E-1,7.794883E-1,1.3287951E0,1.3287951E0,1.6469437E-1,1.2225091E-1,-1.0106273E0,-1.5294838E-1,-1.2627741E0,-5.974798E-1,1.7633224E-2,-2.4656155E0,-1.1576182E0,-1.4084705E-2,-2.4431802E-2,-5.676909E-1,3.5220716E-2,-1.3062768E0,-4.9524613E-2,3.1111693E-1,-2.319309E-2,-6.567721E-2,-5.1395543E-2,5.922649E-1,-1.2637453E0,1.3707921E-1,-2.319608E-2,5.1516254E-2,-9.529197E-2,-1.4854431E-1,-1.4854431E-1,1.3287951E0,-1.2030135E0,1.5038729E0,-4.7163036E-2,-2.2940862E0,1.4683874E-1,2.4875395E-3,-5.8512687E-4,-1.0527468E-2,3.7411702E-1,5.270336E-2,3.036495E-2,2.1816652E-1,2.1564923E-2,9.830239E-2,3.8998E-2,1.49126295E-2,-2.1240613E-1,1.211794E-1,6.7446366E-2,-1.301413E-1,4.134003E-1,-1.4084705E-2,4.2825E-1,4.027189E-2,-1.2776738E-1,-1.1358421E-1,-3.4466982E-3,-2.2612417E-2,5.4033934E-3,-3.6093157E-3,1.4668989E-2,-1.4369624E-3,1.9157942E-2,3.8250007E-2,8.0132484E-4,1.2938166E-2,-8.5622474E-4,-1.5191141E-2,-2.230835E-3,6.885461E-3,-1.22053865E-2,-2.128191E-3,-3.879879E-2,-2.856273E-2,-3.8241674E-3,-2.5354614E-2,-3.9354943E-2,-5.5672735E-2,-8.416379E-3,-2.3578193E-2,-9.478039E-4,-1.8101089E-2,4.341317E-2,2.7101038E-2,1.2280515E-2,-1.264619E-3,1.440156E-2,2.2992244E-2,-8.7160006E-4,7.874247E-3,-3.721099E-2,-9.988467E-3,4.4357874E-3,1.1009041E-2,-8.1823915E-3,-2.6486382E-2,-4.715419E-3,-2.0738736E-2,1.8243192E-2,7.047236E-3,5.264807E-3,1.008153E-3,4.3999955E-2,2.5184155E-2,1.320839E-5,1.7561978E-2,-9.072002E-3,8.261114E-3,1.7503286E-2,9.1787174E-2,1.5572858E-2,8.943543E-2,-1.0438443E-3,3.340143E-2,6.1462708E-2,5.2481707E-2,-4.244232E-3,1.0567928E-2],"split_indices":[0,0,0,0,2,0,0,0,2,1,2,1,2,2,0,0,2,1,1,0,1,0,0,2,0,1,2,2,0,1,0,1,1,0,0,0,0,1,0,0,2,1,0,0,0,1,2,1,2,0,0,0,0,1,1,1,0,2,0,0,0,2,0,0,0,0,0,0,1,0,1,0,0,0,2,1,2,0,0,0,1,2,0,1,1,0,0,0,1,1,1,0,0,0,0,2,2,0,0,0,0,1,0,0,2,1,1,0,0,1,2,0,2,0,0,2,1,1,1,1,0,1,0,0,2,2,2,0,2,2,0,0,0,1,0,0,0,0,0,0,0,2,0,0,2,0,1,0,0,0,0,0,0,0,0,0,0,0,0,0,0,0,0,0,0,0,0,0,0,0,0,0,0,0,0,0,0,0,0,0,0,0,0,0,0,0,0,0,0,0,0,0,0,0,0,0,0,0,0,0,0,0,0,0,0,0,0,0,0,0,0,0,0],"split_type":[0,0,0,0,0,0,0,0,0,0,0,0,0,0,0,0,0,0,0,0,0,0,0,0,0,0,0,0,0,0,0,0,0,0,0,0,0,0,0,0,0,0,0,0,0,0,0,0,0,0,0,0,0,0,0,0,0,0,0,0,0,0,0,0,0,0,0,0,0,0,0,0,0,0,0,0,0,0,0,0,0,0,0,0,0,0,0,0,0,0,0,0,0,0,0,0,0,0,0,0,0,0,0,0,0,0,0,0,0,0,0,0,0,0,0,0,0,0,0,0,0,0,0,0,0,0,0,0,0,0,0,0,0,0,0,0,0,0,0,0,0,0,0,0,0,0,0,0,0,0,0,0,0,0,0,0,0,0,0,0,0,0,0,0,0,0,0,0,0,0,0,0,0,0,0,0,0,0,0,0,0,0,0,0,0,0,0,0,0,0,0,0,0,0,0,0,0,0,0,0,0,0,0,0,0,0,0,0,0,0,0,0,0],"sum_hessian":[3.991E3,1.87E3,2.121E3,1.278E3,5.92E2,7.17E2,1.404E3,8.58E2,4.2E2,1.29E2,4.63E2,4.21E2,2.96E2,9.19E2,4.85E2,1.72E2,6.86E2,1.31E2,2.89E2,4.4E1,8.5E1,3.94E2,6.9E1,3.1E2,1.11E2,2.09E2,8.7E1,6.64E2,2.55E2,2.97E2,1.88E2,2.14E2,4.72E2,4E1,9.1E1,2.36E2,5.3E1,2.2E1,2.2E1,5.7E1,2.8E1,2.52E2,1.42E2,6.4E1,5E0,3.2E1,2.78E2,9.3E1,1.8E1,1.83E2,2.6E1,2E0,8.5E1,9.9E1,5.65E2,1.94E2,6.1E1,1.55E2,1.42E2,1.6E2,5.4E1,3.65E2,1.07E2,3.9E1,1E0,1.6E1,6E0,9E0,1.3E1,4.3E1,1.4E1,2.6E1,2E0,1.97E2,5.5E1,1.05E2,3.7E1,3.1E1,1E0,2.22E2,5.6E1,7.5E1,1.8E1,1.3E1,5E0,1.37E2,4.6E1,1E0,2.5E1,2.2E1,6.3E1,8.6E1,1.3E1,3.53E2,2.12E2,1.68E2,2.6E1,1.24E2,3.1E1,3.3E2,3.5E1,4E0,1.2E1,1E0,8E0,9E0,4E0,2.6E1,1.7E1,7E0,7E0,8.5E1,1.12E2,2E0,5.3E1,5.7E1,4.8E1,1.5E1,2.2E1,2E1,1.1E1,8.4E1,1.38E2,1.9E1,3.7E1,1.6E1,5.9E1,1E0,1.7E1,1.1E1,2E0,1E0,4E0,4.8E1,8.9E1,2.2E1,3E0,1.3E1,9E0,5.8E1,5E0,2.63E2,9E1,1.11E2,1.01E2,4E0,1.64E2,2E0,2.4E1,2.03E2,1.27E2,1E0,3E0,7E0,5E0,2E0,6E0,6E0,3E0,2E0,2E0,2E0,1.5E1,1E0,6E0,3E0,4E0,9.7E1,1.5E1,4E0,5.3E1,3.7E1,1.1E1,3E0,1.2E1,1.7E1,5E0,9E0,1.1E1,3.5E1,4.9E1,5.9E1,7.9E1,8E0,1.1E1,1E0,3.6E1,1.4E1,2E0,5.4E1,5E0,1E0,1.6E1,8E0,3E0,1E0,1E0,3.6E1,1.2E1,1E0,2E0,2E0,7E0,1E0,2.62E2,1E0,1E2,1E0,3E0,7.6E1,8.8E1,1E0,1E0],"tree_param":{"num_deleted":"0","num_feature":"3","num_nodes":"213","size_leaf_vector":"1"}},{"base_weights":[1.2321916E-5,-8.336496E-1,7.3506486E-1,-1.0590103E0,-3.461792E-1,2.0877822E-1,1.003491E0,-1.1674532E0,-8.9586896E-1,-1.212665E-1,-4.0844747E-1,7.0578635E-2,4.0443966E-1,7.8809756E-1,1.4091668E0,-1.0438932E0,-1.2382371E0,-7.2255254E-1,-9.6511525E-1,3.612403E-2,-2.0221193E-1,-3.6899006E-1,-6.252649E-1,1.19571835E-1,-6.609515E-2,4.579628E-1,2.7211797E-1,8.823781E-1,5.401106E-1,1.2962569E0,1.5797383E-1,-1.2953936E-1,-9.4955E-1,-1.1321235E0,-1.2990418E-1,-6.688022E-2,-8.5976355E-2,-9.329789E-1,-1.0941249E-1,-8.93166E-2,1.5999404E-1,-1.4378044E-1,-3.121021E-1,-4.3247706E-1,-2.5408658E-1,-6.552335E-2,-1.963938E-2,3.8344508E-1,8.793245E-2,-9.076228E-2,8.758029E-2,4.8533803E-1,2.5444418E-1,-2.3617666E-2,2.8668502E-1,1.1999431E0,8.247123E-1,4.8811823E-1,6.949235E-2,1.4152333E0,1.1573998E0,-8.9855455E-2,-1.1129349E-1,-1.4323409E-1,-1.09274976E-1,-9.080332E-1,-1.0951972E-1,-4.154191E-2,-1.9258132E-2,6.537986E-2,2.1614745E-1,-1.924396E-1,-2.495787E-2,-3.218511E-2,-1.20327E-2,-3.8779035E-1,-5.827537E-1,-3.0274245E-1,-1.1167585E-1,3.9124638E-2,6.6901683E-3,1.24616556E-1,-5.712874E-2,-5.8537763E-2,-2.1997148E-1,1.3555552E-1,-9.023428E-3,4.3775454E-1,6.14725E-2,3.1049014E-3,2.618421E-1,1.1961117E-1,3.3227894E-1,1.2388649E-1,8.723622E-2,8.9562607E-1,7.0298356E-1,5.086477E-1,3.4154075E-1,1.483567E-1,1.10407844E-1,1.1940312E-1,9.3673885E-2,-9.4016485E-2,-7.969065E-2,-1.8042926E-1,1.5071833E-2,1.6751552E-2,3.5418615E-2,2.641359E-1,7.694111E-2,-2.2079121E-2,-1.2857743E-1,2.9123731E-2,-7.113552E-2,-4.965717E-2,-3.588512E-1,-2.1646898E-2,-5.9231114E-2,-2.159245E-1,-3.9932814E-1,-1.933521E-1,-5.000212E-2,4.024499E-2,1.7531416E-1,2.6432654E-2,-1.1443299E-1,5.361863E-2,-8.787301E-2,-4.4804882E-2,-1.8240891E-1,1.4936686E-1,3.97288E-2,3.6056548E-1,4.7491574E-1,2.746047E-2,1.2299657E-1,1.7301401E-2,3.5117254E-2,3.5097548E-1,1.2188339E-1,8.2456267E-1,1.091946E-1,6.076196E-1,8.00805E-1,2.4320392E-1,5.136087E-1,4.005003E-2,3.6405798E-2,-3.2743693E-3,-2.0916475E-2,4.9305856E-3,-3.3085507E-3,1.1609554E-2,-2.4269104E-3,1.7515836E-2,3.5381258E-2,7.478873E-4,1.2075631E-2,-7.991314E-4,-1.4651442E-2,-2.439518E-3,7.6817893E-3,-1.0224303E-2,-1.957941E-3,-3.9265122E-2,-3.2597706E-2,-3.5182287E-3,-2.2866128E-2,-3.2372218E-2,-4.5375954E-2,-7.785165E-3,-2.1401746E-2,-8.5827516E-4,-1.6592653E-2,1.04733445E-2,-1.6706819E-3,1.4841862E-2,2.319084E-2,-1.19905E-2,4.5186304E-3,-3.5350442E-2,-9.647615E-3,4.021759E-3,1.0275094E-2,-1.3892149E-2,-3.7255564E-3,-4.4796467E-3,-1.8786868E-2,1.7278595E-2,6.518698E-3,5.0015687E-3,9.577513E-4,3.9718863E-2,2.2859463E-2,3.2782875E-2,4.872115E-2,1.2540818E-5,1.6391182E-2,-8.467213E-3,8.143882E-3,3.9226808E-2,3.0129572E-2,1.6494513E-3,1.3669913E-2,1.6628122E-2,8.264334E-2,4.9611893E-2,6.339575E-2,8.856338E-2,6.869218E-2,-9.916545E-4,3.089632E-2,5.539624E-2,4.729251E-2,-4.032016E-3,1.003952E-2],"categories":[],"categories_nodes":[],"categories_segments":[],"categories_sizes":[],"default_left":[0,0,0,0,0,0,0,0,0,0,0,0,0,0,0,0,0,0,0,0,0,0,0,0,0,0,0,0,0,0,0,0,0,0,0,0,0,0,0,0,0,0,0,0,0,0,0,0,0,0,0,0,0,0,0,0,0,0,0,0,0,0,0,0,0,0,0,0,0,0,0,0,0,0,0,0,0,0,0,0,0,0,0,0,0,0,0,0,0,0,0,0,0,0,0,0,0,0,0,0,0,0,0,0,0,0,0,0,0,0,0,0,0,0,0,0,0,0,0,0,0,0,0,0,0,0,0,0,0,0,0,0,0,0,0,0,0,0,0,0,0,0,0,0,0,0,0,0,0,0,0,0,0,0,0,0,0,0,0,0,0,0,0,0,0,0,0,0,0,0,0,0,0,0,0,0,0,0,0,0,0,0,0,0,0,0,0,0,0,0,0,0,0,0,0,0,0,0,0,0,0,0,0,0,0,0,0,0,0,0,0,0,0,0,0,0,0],"id":1,"left_children":[1,3,5,7,9,11,13,15,17,19,21,23,25,27,29,31,33,35,37,39,41,43,45,47,49,51,53,55,57,59,-1,-1,61,63,-1,-1,-1,65,-1,67,69,71,73,75,77,-1,-1,79,81,83,85,87,89,-1,91,93,95,97,-1,99,101,-1,-1,-1,-1,103,-1,105,-1,107,109,111,113,-1,-1,115,117,119,121,-1,-1,123,125,127,129,131,-1,133,-1,-1,135,137,139,-1,-1,141,143,145,147,-1,-1,-1,-1,-1,-1,149,151,-1,153,155,157,-1,159,161,163,-1,165,-1,-1,167,169,171,173,175,177,179,181,183,185,-1,187,189,191,193,195,-1,197,-1,199,201,203,205,-1,207,209,211,213,215,-1,-1,-1,-1,-1,-1,-1,-1,-1,-1,-1,-1,-1,-1,-1,-1,-1,-1,-1,-1,-1,-1,-1,-1,-1,-1,-1,-1,-1,-1,-1,-1,-1,-1,-1,-1,-1,-1,-1,-1,-1,-1,-1,-1,-1,-1,-1,-1,-1,-1,-1,-1,-1,-1,-1,-1,-1,-1,-1,-1,-1,-1,-1,-1,-1,-1,-1,-1,-1],"loss_changes":[2.4468516E3,2.051753E2,2.9956348E2,2.1581543E1,8.255386E0,1.9386406E1,1.216582E2,5.3981934E0,5.4834595E0,1.6635106E0,3.738823E0,2.8336515E0,1.9788208E0,2.1033386E1,7.312195E0,5.5322266E0,1.6328735E0,5.3863525E-1,4.9243164E-1,7.1351504E-1,5.0733614E-1,2.7715912E0,7.710037E-1,2.5627556E0,4.325111E-1,1.0464935E0,7.192912E-1,1.1188293E1,1.7213593E0,3.2852173E0,0E0,0E0,7.579956E-1,5.979767E-1,0E0,0E0,0E0,2.1548462E-1,0E0,1.05468914E-1,1.0806519E-1,3.3054197E-1,1.5491486E-2,1.4730034E0,9.5705414E-1,0E0,0E0,5.5316925E-2,1.491801E0,3.9100266E-1,1.4872289E-1,8.637314E-1,3.649199E-2,0E0,6.153655E-1,1.9425964E-1,4.2562256E0,4.1305923E-1,0E0,1.6789551E0,3.7384033E-2,0E0,0E0,0E0,0E0,1.9702148E-1,0E0,1.3638927E-1,0E0,2.4667945E-2,7.320124E-2,4.584551E-2,4.702423E-2,0E0,0E0,4.4511795E-1,6.782341E-2,8.0262566E-1,1.817486E-1,0E0,0E0,9.468126E-1,2.7596492E-1,2.6463237E-1,8.104813E-2,1.1271268E-2,0E0,2.2460556E-1,0E0,0E0,1.2297273E-2,8.416852E-2,2.2077799E-1,0E0,0E0,4.03833E0,1.5004196E0,9.764099E-2,1.6871548E-1,0E0,0E0,0E0,0E0,0E0,0E0,1.4370233E-2,2.3063362E-2,0E0,4.6156332E-2,1.7818868E-2,1.4314391E-2,0E0,3.127341E-2,2.4846843E-2,1.40359625E-2,0E0,4.9785614E-2,0E0,0E0,1.254754E-1,5.4759026E-2,2.1528184E-2,1.0901078E-1,3.1393215E-1,1.7715693E-1,7.128282E-2,1.1185619E-1,7.060811E-3,1.5761286E-1,0E0,5.108118E-3,1.042217E-2,4.514628E-4,1.460309E-1,3.0460358E-3,0E0,2.0088658E-2,0E0,5.6835078E-2,6.9465637E-3,8.675098E-3,1.8769836E-1,0E0,1.4389038E-2,3.770218E-1,8.62889E-2,8.907318E-3,1.8597808E-2,0E0,0E0,0E0,0E0,0E0,0E0,0E0,0E0,0E0,0E0,0E0,0E0,0E0,0E0,0E0,0E0,0E0,0E0,0E0,0E0,0E0,0E0,0E0,0E0,0E0,0E0,0E0,0E0,0E0,0E0,0E0,0E0,0E0,0E0,0E0,0E0,0E0,0E0,0E0,0E0,0E0,0E0,0E0,0E0,0E0,0E0,0E0,0E0,0E0,0E0,0E0,0E0,0E0,0E0,0E0,0E0,0E0,0E0,0E0,0E0,0E0,0E0,0E0,0E0,0E0,0E0,0E0,0E0,0E0],"parents":[2147483647,0,0,1,1,2,2,3,3,4,4,5,5,6,6,7,7,8,8,9,9,10,10,11,11,12,12,13,13,14,14,15,15,16,16,17,17,18,18,19,19,20,20,21,21,22,22,23,23,24,24,25,25,26,26,27,27,28,28,29,29,32,32,33,33,37,37,39,39,40,40,41,41,42,42,43,43,44,44,47,47,48,48,49,49,50,50,51,51,52,52,54,54,55,55,56,56,57,57,59,59,60,60,65,65,67,67,69,69,70,70,71,71,72,72,75,75,76,76,77,77,78,78,81,81,82,82,83,83,84,84,85,85,87,87,90,90,91,91,92,92,95,95,96,96,97,97,98,98,105,105,106,106,108,108,109,109,110,110,112,112,113,113,114,114,116,116,119,119,120,120,121,121,122,122,123,123,124,124,125,125,126,126,127,127,128,128,130,130,131,131,132,132,133,133,134,134,136,136,138,138,139,139,140,140,141,141,143,143,144,144,145,145,146,146,147,147],"right_children":[2,4,6,8,10,12,14,16,18,20,22,24,26,28,30,32,34,36,38,40,42,44,46,48,50,52,54,56,58,60,-1,-1,62,64,-1,-1,-1,66,-1,68,70,72,74,76,78,-1,-1,80,82,84,86,88,90,-1,92,94,96,98,-1,100,102,-1,-1,-1,-1,104,-1,106,-1,108,110,112,114,-1,-1,116,118,120,122,-1,-1,124,126,128,130,132,-1,134,-1,-1,136,138,140,-1,-1,142,144,146,148,-1,-1,-1,-1,-1,-1,150,152,-1,154,156,158,-1,160,162,164,-1,166,-1,-1,168,170,172,174,176,178,180,182,184,186,-1,188,190,192,194,196,-1,198,-1,200,202,204,206,-1,208,210,212,214,216,-1,-1,-1,-1,-1,-1,-1,-1,-1,-1,-1,-1,-1,-1,-1,-1,-1,-1,-1,-1,-1,-1,-1,-1,-1,-1,-1,-1,-1,-1,-1,-1,-1,-1,-1,-1,-1,-1,-1,-1,-1,-1,-1,-1,-1,-1,-1,-1,-1,-1,-1,-1,-1,-1,-1,-1,-1,-1,-1,-1,-1,-1,-1,-1,-1,-1,-1,-1,-1],"split_conditions":[-2.524832E-1,-7.1371144E-1,3.7690675E-1,-9.6766704E-1,-1.9371147E-1,2.9430548E-2,1.18978E0,-1.9371147E-1,-1.9371147E-1,2.5569439E-2,4.5450586E-1,4.573761E-1,4.5450586E-1,4.5450586E-1,1.9419873E0,-1.0852354E0,-9.829989E-1,3.7411702E-1,4.2351806E-1,-5.379138E-1,4.573761E-1,-5.226334E-1,-3.5575172E-1,-1.9371147E-1,-5.5929616E-2,1.5970964E0,1.3287951E0,-6.6605514E-1,8.011458E-1,3.7411702E-1,1.5797383E-1,-1.2953936E-1,4.2898703E-1,-1.0939164E0,-1.2990418E-1,-6.688022E-2,-8.5976355E-2,4.5450586E-1,-1.0941249E-1,-9.829989E-1,-4.923762E-1,-4.9911097E-1,-1.1872953E0,1.7063852E-1,-3.9035267E-1,-6.552335E-2,-1.963938E-2,4.2898703E-1,4.5450586E-1,1.8916551E0,4.5450586E-1,2.604877E-1,6.1152957E-2,-2.3617666E-2,1.5567671E-1,3.7411702E-1,3.7411702E-1,1.5970964E0,6.949235E-2,4.50959E-1,4.5450586E-1,-8.9855455E-2,-1.1129349E-1,-1.4323409E-1,-1.09274976E-1,-8.210969E-1,-1.0951972E-1,-6.604442E-1,-1.9258132E-2,-5.3086746E-1,-1.0652744E0,-5.800652E-1,7.483185E-2,-3.218511E-2,-1.20327E-2,-6.3961875E-1,-5.5448342E-2,-1.4084705E-2,5.378007E-2,3.9124638E-2,6.6901683E-3,-1.8659966E-1,-9.829989E-1,-5.1395543E-2,-2.2733654E-1,1.8612279E0,-9.023428E-3,1.6835034E-1,6.14725E-2,3.1049014E-3,2.0328138E0,-1.4084705E-2,5.0072217E-1,1.2388649E-1,8.723622E-2,7.794883E-1,7.794883E-1,1.3287951E0,1.3287951E0,1.483567E-1,1.10407844E-1,1.1940312E-1,9.3673885E-2,-9.4016485E-2,-7.969065E-2,-1.2627741E0,-5.974798E-1,1.6751552E-2,-2.461967E0,-1.1576182E0,-1.4084705E-2,-2.2079121E-2,-5.676909E-1,3.6722902E-2,-1.3062768E0,-4.965717E-2,-5.939519E-1,-2.1646898E-2,-5.9231114E-2,-5.1395543E-2,1.640617E-1,-1.2637453E0,1.3707921E-1,-5.6102335E-2,-7.2713286E-2,-2.3392108E-1,1.3287951E0,-1.2030135E0,-1.7017339E-1,-4.4804882E-2,-2.2940862E0,1.4683874E-1,2.4875395E-3,3.7411702E-1,-1.2592424E0,2.746047E-2,2.1816652E-1,1.7301401E-2,9.830239E-2,-9.529197E-2,1.6835034E-1,-2.1240613E-1,1.091946E-1,4.476419E-1,1.6431911E0,4.134003E-1,-1.4084705E-2,4.2825E-1,3.6405798E-2,-3.2743693E-3,-2.0916475E-2,4.9305856E-3,-3.3085507E-3,1.1609554E-2,-2.4269104E-3,1.7515836E-2,3.5381258E-2,7.478873E-4,1.2075631E-2,-7.991314E-4,-1.4651442E-2,-2.439518E-3,7.6817893E-3,-1.0224303E-2,-1.957941E-3,-3.9265122E-2,-3.2597706E-2,-3.5182287E-3,-2.2866128E-2,-3.2372218E-2,-4.5375954E-2,-7.785165E-3,-2.1401746E-2,-8.5827516E-4,-1.6592653E-2,1.04733445E-2,-1.6706819E-3,1.4841862E-2,2.319084E-2,-1.19905E-2,4.5186304E-3,-3.5350442E-2,-9.647615E-3,4.021759E-3,1.0275094E-2,-1.3892149E-2,-3.7255564E-3,-4.4796467E-3,-1.8786868E-2,1.7278595E-2,6.518698E-3,5.0015687E-3,9.577513E-4,3.9718863E-2,2.2859463E-2,3.2782875E-2,4.872115E-2,1.2540818E-5,1.6391182E-2,-8.467213E-3,8.143882E-3,3.9226808E-2,3.0129572E-2,1.6494513E-3,1.3669913E-2,1.6628122E-2,8.264334E-2,4.9611893E-2,6.339575E-2,8.856338E-2,6.869218E-2,-9.916545E-4,3.089632E-2,5.539624E-2,4.729251E-2,-4.032016E-3,1.003952E-2],"split_indices":[0,0,0,0,2,0,0,2,2,1,2,1,2,2,0,0,1,1,1,0,1,0,0,2,0,1,2,2,0,1,0,0,1,0,0,0,0,2,0,1,0,0,2,1,0,0,0,1,2,1,2,0,0,0,0,1,1,1,0,2,2,0,0,0,0,0,0,0,0,0,1,0,1,0,0,0,2,1,2,0,0,0,1,2,0,1,0,0,0,0,1,1,1,0,0,0,0,2,2,0,0,0,0,0,0,1,0,0,2,1,1,0,0,1,2,0,0,0,0,2,1,1,1,1,0,0,2,2,0,0,2,2,0,1,1,0,0,0,0,1,0,2,0,0,1,0,1,0,0,0,0,0,0,0,0,0,0,0,0,0,0,0,0,0,0,0,0,0,0,0,0,0,0,0,0,0,0,0,0,0,0,0,0,0,0,0,0,0,0,0,0,0,0,0,0,0,0,0,0,0,0,0,0,0,0,0,0,0,0,0,0,0,0,0,0,0,0],"split_type":[0,0,0,0,0,0,0,0,0,0,0,0,0,0,0,0,0,0,0,0,0,0,0,0,0,0,0,0,0,0,0,0,0,0,0,0,0,0,0,0,0,0,0,0,0,0,0,0,0,0,0,0,0,0,0,0,0,0,0,0,0,0,0,0,0,0,0,0,0,0,0,0,0,0,0,0,0,0,0,0,0,0,0,0,0,0,0,0,0,0,0,0,0,0,0,0,0,0,0,0,0,0,0,0,0,0,0,0,0,0,0,0,0,0,0,0,0,0,0,0,0,0,0,0,0,0,0,0,0,0,0,0,0,0,0,0,0,0,0,0,0,0,0,0,0,0,0,0,0,0,0,0,0,0,0,0,0,0,0,0,0,0,0,0,0,0,0,0,0,0,0,0,0,0,0,0,0,0,0,0,0,0,0,0,0,0,0,0,0,0,0,0,0,0,0,0,0,0,0,0,0,0,0,0,0,0,0,0,0,0,0,0,0,0,0,0,0],"sum_hessian":[3.991E3,1.87E3,2.121E3,1.278E3,5.92E2,7.17E2,1.404E3,7.64E2,5.14E2,1.29E2,4.63E2,4.21E2,2.96E2,9.19E2,4.85E2,2.84E2,4.8E2,1.5E2,3.64E2,4.4E1,8.5E1,3.94E2,6.9E1,3.1E2,1.11E2,2.09E2,8.7E1,6.64E2,2.55E2,2.97E2,1.88E2,7.4E1,2.1E2,1.82E2,2.98E2,1.12E2,3.8E1,2.98E2,6.6E1,2.2E1,2.2E1,5.7E1,2.8E1,2.52E2,1.42E2,6.4E1,5E0,3.2E1,2.78E2,9.6E1,1.5E1,1.83E2,2.6E1,2E0,8.5E1,9.9E1,5.65E2,1.94E2,6.1E1,1.55E2,1.42E2,1.65E2,4.5E1,1.7E1,1.65E2,2.64E2,3.4E1,1.6E1,6E0,9E0,1.3E1,4E1,1.7E1,2.6E1,2E0,1.97E2,5.5E1,1.05E2,3.7E1,3.1E1,1E0,2.22E2,5.6E1,7.8E1,1.8E1,1.2E1,3E0,1.37E2,4.6E1,1E0,2.5E1,1.9E1,6.6E1,8.6E1,1.3E1,3.53E2,2.12E2,1.68E2,2.6E1,1.24E2,3.1E1,1.18E2,2.4E1,1.99E2,6.5E1,4E0,1.2E1,1E0,8E0,9E0,4E0,2.6E1,1.4E1,8E0,9E0,3.8E1,1.59E2,2E0,5.3E1,5.7E1,4.8E1,1.5E1,2.2E1,8.4E1,1.38E2,2.3E1,3.3E1,1.6E1,6.2E1,1E0,1.7E1,1E1,2E0,4.8E1,8.9E1,2.2E1,3E0,1.1E1,8E0,6E1,6E0,2.63E2,9E1,1.11E2,1.01E2,4E0,1.64E2,2E0,2.4E1,1E0,3E0,7E0,5E0,3E0,5E0,6E0,3E0,2E0,2E0,2E0,1.2E1,4E0,4E0,5E0,4E0,7.3E1,8.6E1,4E0,5.3E1,2.3E1,2.5E1,3E0,1.2E1,1.7E1,5E0,3.9E1,4.5E1,9.6E1,4.2E1,2E0,2.1E1,1E0,3.2E1,1.4E1,2E0,3E1,3.2E1,1E0,1.6E1,7E0,3E0,1E0,1E0,3.6E1,1.2E1,9E0,8E1,1E0,2E0,2E0,6E0,2.9E1,3.1E1,1E0,5E0,1E0,2.62E2,2.5E1,8.6E1,5.4E1,4.7E1,1E0,3E0,7.6E1,8.8E1,1E0,1E0],"tree_param":{"num_deleted":"0","num_feature":"3","num_nodes":"217","size_leaf_vector":"1"}},{"base_weights":[4.825253E-5,-7.5691587E-1,6.574771E-1,-9.579728E-1,-3.2707968E-1,1.835609E-1,9.042551E-1,-1.0377871E0,-7.8674513E-1,-1.3080144E-1,-3.8354534E-1,5.9754852E-2,3.6510864E-1,7.1030337E-1,1.2695459E0,-1.236154E-1,-1.0023211E0,-6.379713E-1,-8.506553E-1,6.1006606E-2,-1.8912236E-1,-3.4325445E-1,-5.959011E-1,1.0266293E-1,-6.271857E-2,4.13369E-1,2.4579291E-1,7.951776E-1,4.870546E-1,1.1603968E0,1.4134996E-1,-8.501054E-1,-1.0696623E0,-5.9127774E-2,-7.676814E-2,-8.20247E-2,-9.659922E-2,-2.759669E-2,2.3266715E-1,-3.6925595E-2,-1.4922088E-1,-4.5441827E-1,-2.92577E-1,-6.445553E-2,-4.1412976E-1,3.364199E-1,7.4096866E-2,-8.773116E-2,6.696179E-2,4.3792138E-1,2.3073928E-1,-2.204315E-2,2.591985E-1,1.0820599E0,7.4308676E-1,4.3679574E-1,6.1693305E-1,1.2302547E0,9.5843434E-2,-8.1295294E-1,-1.05458155E-1,-1.022919E0,-1.2126875E-1,-1.7033093E-1,2.4403432E-2,1.4681013E-1,3.0633355E-2,-1.013956E-1,-2.6185876E-1,-3.8438118E-1,-5.5502098E-2,-2.5514305E-1,-4.1152433E-1,-4.407595E-2,-2.107358E-2,1.968968E-2,3.6426866E-1,1.06502056E-1,-5.4582823E-2,-5.8879588E-2,-2.0155701E-1,1.2379527E-1,-7.6809965E-2,3.950231E-1,5.545605E-1,2.949667E-3,2.3734489E-1,1.2150161E-1,3.0463335E-1,1.1164023E-1,7.913569E-2,8.066523E-1,6.339539E-1,4.7004964E-2,3.6335465E-1,2.2954337E-2,6.2507087E-1,1.2808585E-1,9.8822705E-2,-7.3340714E-2,-8.5321836E-2,-9.9379057E-1,-1.2715994E-1,-3.1106472E-3,-1.9195452E-2,-2.8771129E-2,5.6023296E-2,1.4420509E-3,1.6647166E-2,-1.5724373E-1,-2.3176035E-2,-2.6686003E-2,-7.091403E-3,-4.113784E-2,-3.0187055E-2,-2.8302586E-1,-1.092358E-1,-4.332873E-1,-7.24165E-2,3.8322363E-2,1.5473294E-2,2.9134745E-2,1.580562E-1,1.8526154E-2,-1.0524401E-1,4.9097873E-2,-8.753664E-2,-4.256463E-2,-1.6546059E-1,1.3499224E-1,3.7742298E-2,-2.039353E-2,-9.99198E-3,5.331341E-2,3.7384588E-1,2.3232841E-1,5.6371905E-2,2.5740433E-2,1.461258E-1,1.770765E-1,3.1546593E-2,3.1770658E-1,1.2530749E-2,7.4248224E-1,9.839517E-2,5.4786646E-1,7.2226614E-1,-3.1816483E-2,3.7683266E-1,6.435239E-2,4.0853935E-1,-1.0473877E-1,-9.332498E-2,2.7985335E-3,-7.833481E-3,7.7356817E-3,-6.4957145E-5,-1.7253777E-2,-5.201729E-3,1.1565733E-3,-1.0713345E-2,-3.0076671E-2,-2.3434179E-2,6.8359375E-3,-1.1646977E-2,-3.654478E-2,-4.9534358E-2,-1.005629E-2,-2.013127E-3,9.360841E-3,-2.4740293E-3,1.664955E-2,1.7655531E-3,-1.3275926E-2,3.7453547E-3,-3.3582926E-2,-8.858476E-3,3.6464054E-3,9.590101E-3,-1.8280962E-2,-5.852933E-3,-6.390381E-3,-1.741612E-2,1.5319061E-2,6.0297847E-3,4.751492E-3,9.0985297E-4,-3.695965E-4,-2.689433E-3,-8.832169E-3,3.783581E-2,2.3982525E-4,3.4609437E-2,6.118202E-3,1.678669E-2,1.1362499E-2,2.1046204E-2,-7.902733E-3,6.9068493E-3,3.6356054E-2,2.7831212E-2,1.579671E-2,7.441041E-2,4.48415E-2,5.7129025E-2,7.986807E-2,6.196607E-2,-9.4206334E-4,-3.8304091E-3,2.36233E-2,3.997692E-2,4.6574768E-2,4.0404798E-4],"categories":[],"categories_nodes":[],"categories_segments":[],"categories_sizes":[],"default_left":[0,0,0,0,0,0,0,0,0,0,0,0,0,0,0,0,0,0,0,0,0,0,0,0,0,0,0,0,0,0,0,0,0,0,0,0,0,0,0,0,0,0,0,0,0,0,0,0,0,0,0,0,0,0,0,0,0,0,0,0,0,0,0,0,0,0,0,0,0,0,0,0,0,0,0,0,0,0,0,0,0,0,0,0,0,0,0,0,0,0,0,0,0,0,0,0,0,0,0,0,0,0,0,0,0,0,0,0,0,0,0,0,0,0,0,0,0,0,0,0,0,0,0,0,0,0,0,0,0,0,0,0,0,0,0,0,0,0,0,0,0,0,0,0,0,0,0,0,0,0,0,0,0,0,0,0,0,0,0,0,0,0,0,0,0,0,0,0,0,0,0,0,0,0,0,0,0,0,0,0,0,0,0,0,0,0,0,0,0,0,0,0,0,0,0,0,0,0,0,0,0,0,0,0,0,0,0,0,0,0,0,0,0],"id":2,"left_children":[1,3,5,7,9,11,13,15,17,19,21,23,25,27,29,-1,31,33,35,37,39,41,43,45,47,49,51,53,55,57,-1,59,61,-1,-1,-1,-1,63,65,-1,67,69,71,-1,73,75,77,79,81,83,85,-1,87,89,91,93,95,97,-1,99,-1,101,-1,103,105,107,-1,109,111,113,-1,115,117,-1,-1,-1,119,121,123,125,127,129,131,133,135,-1,137,139,141,-1,-1,143,145,-1,147,-1,149,-1,-1,-1,-1,151,-1,-1,-1,153,155,-1,-1,157,159,-1,-1,-1,-1,161,163,165,167,-1,-1,169,171,173,175,177,179,-1,181,183,185,187,-1,-1,189,191,-1,-1,193,195,197,199,-1,201,-1,203,205,207,209,-1,211,-1,-1,-1,-1,-1,-1,-1,-1,-1,-1,-1,-1,-1,-1,-1,-1,-1,-1,-1,-1,-1,-1,-1,-1,-1,-1,-1,-1,-1,-1,-1,-1,-1,-1,-1,-1,-1,-1,-1,-1,-1,-1,-1,-1,-1,-1,-1,-1,-1,-1,-1,-1,-1,-1,-1,-1,-1,-1,-1,-1,-1,-1],"loss_changes":[1.9871167E3,1.6008496E2,2.4976062E2,1.6458008E1,6.522045E0,1.6453608E1,9.864075E1,4.8043213E0,3.317627E0,1.5105183E0,3.7312164E0,2.302917E0,1.6085892E0,1.7044922E1,5.9959717E0,0E0,6.614441E0,3.0922318E-1,1.9316101E-1,4.931309E-1,6.852217E-1,2.0584793E0,3.698349E-1,2.1385872E0,3.7564972E-1,8.4059143E-1,6.0713625E-1,9.1336975E0,1.401577E0,2.7994995E0,0E0,8.8993835E-1,2.1356812E0,0E0,0E0,0E0,0E0,1.67445E-1,2.4599671E-2,0E0,4.3672538E-1,6.3217163E-1,1.0972214E0,0E0,4.6103E-3,6.427097E-2,1.2150812E0,3.0340165E-1,1.6475862E-1,7.0160294E-1,2.8890848E-2,0E0,5.010233E-1,1.14868164E-1,3.4150085E0,2.8834152E-1,7.4043274E-2,1.2572021E0,0E0,1.1627197E-2,0E0,1.5395813E0,0E0,1.2092173E-2,3.019518E-2,1.5820265E-2,0E0,2.671975E-1,4.9500465E-3,4.065609E-2,0E0,8.152914E-1,4.3356228E-1,0E0,0E0,0E0,5.1911592E-2,9.207516E-1,2.204732E-1,2.4565455E-1,8.325988E-2,8.394539E-3,5.784929E-3,2.0431137E-1,7.736206E-3,0E0,9.961605E-3,1.0939643E-1,1.1022854E-1,0E0,0E0,3.296997E0,1.2236404E0,0E0,3.4753418E-1,0E0,4.804611E-3,0E0,0E0,0E0,0E0,1.614685E-1,0E0,0E0,0E0,2.188364E-2,1.3349596E-2,0E0,0E0,4.8961222E-2,7.999346E-2,0E0,0E0,0E0,0E0,7.97987E-2,5.292687E-2,6.7359924E-2,5.333742E-3,0E0,0E0,3.2882684E-1,1.6175961E-1,7.655826E-2,1.0469887E-1,6.555196E-3,1.6064426E-1,0E0,4.7753453E-3,7.0747435E-3,4.0745782E-4,2.2624212E-4,0E0,0E0,2.899208E-1,7.764466E-2,0E0,0E0,2.6569515E-3,5.7433248E-3,4.6947733E-2,5.393982E-3,0E0,1.327362E-1,0E0,4.7340393E-3,3.0482483E-1,7.503759E-5,1.0227871E-1,0E0,1.8324375E-1,0E0,0E0,0E0,0E0,0E0,0E0,0E0,0E0,0E0,0E0,0E0,0E0,0E0,0E0,0E0,0E0,0E0,0E0,0E0,0E0,0E0,0E0,0E0,0E0,0E0,0E0,0E0,0E0,0E0,0E0,0E0,0E0,0E0,0E0,0E0,0E0,0E0,0E0,0E0,0E0,0E0,0E0,0E0,0E0,0E0,0E0,0E0,0E0,0E0,0E0,0E0,0E0,0E0,0E0,0E0,0E0,0E0,0E0,0E0,0E0,0E0,0E0],"parents":[2147483647,0,0,1,1,2,2,3,3,4,4,5,5,6,6,7,7,8,8,9,9,10,10,11,11,12,12,13,13,14,14,16,16,17,17,18,18,19,19,20,20,21,21,22,22,23,23,24,24,25,25,26,26,27,27,28,28,29,29,31,31,32,32,37,37,38,38,40,40,41,41,42,42,44,44,45,45,46,46,47,47,48,48,49,49,50,50,52,52,53,53,54,54,55,55,56,56,57,57,59,59,61,61,63,63,64,64,65,65,67,67,68,68,69,69,71,71,72,72,76,76,77,77,78,78,79,79,80,80,81,81,82,82,83,83,84,84,86,86,87,87,88,88,91,91,92,92,94,94,96,96,101,101,105,105,106,106,109,109,110,110,115,115,116,116,117,117,118,118,121,121,122,122,123,123,124,124,125,125,126,126,128,128,129,129,130,130,131,131,134,134,135,135,138,138,139,139,140,140,141,141,143,143,145,145,146,146,147,147,148,148,150,150],"right_children":[2,4,6,8,10,12,14,16,18,20,22,24,26,28,30,-1,32,34,36,38,40,42,44,46,48,50,52,54,56,58,-1,60,62,-1,-1,-1,-1,64,66,-1,68,70,72,-1,74,76,78,80,82,84,86,-1,88,90,92,94,96,98,-1,100,-1,102,-1,104,106,108,-1,110,112,114,-1,116,118,-1,-1,-1,120,122,124,126,128,130,132,134,136,-1,138,140,142,-1,-1,144,146,-1,148,-1,150,-1,-1,-1,-1,152,-1,-1,-1,154,156,-1,-1,158,160,-1,-1,-1,-1,162,164,166,168,-1,-1,170,172,174,176,178,180,-1,182,184,186,188,-1,-1,190,192,-1,-1,194,196,198,200,-1,202,-1,204,206,208,210,-1,212,-1,-1,-1,-1,-1,-1,-1,-1,-1,-1,-1,-1,-1,-1,-1,-1,-1,-1,-1,-1,-1,-1,-1,-1,-1,-1,-1,-1,-1,-1,-1,-1,-1,-1,-1,-1,-1,-1,-1,-1,-1,-1,-1,-1,-1,-1,-1,-1,-1,-1,-1,-1,-1,-1,-1,-1,-1,-1,-1,-1,-1,-1],"split_conditions":[-2.666673E-1,-7.491385E-1,3.7690675E-1,-9.2753917E-1,-1.9371147E-1,2.9430548E-2,1.18978E0,-1.0852354E0,-1.9371147E-1,-9.829989E-1,4.5450586E-1,4.573761E-1,4.5450586E-1,4.5450586E-1,1.8647128E0,-1.236154E-1,-1.9371147E-1,3.7411702E-1,4.2351806E-1,-4.9911097E-1,-6.316047E-1,-6.083189E-1,-4.8429453E-1,-1.9371147E-1,-7.2713286E-2,1.5970964E0,1.3287951E0,-6.6605514E-1,7.520959E-1,1.5970964E0,1.4134996E-1,5.0072217E-1,3.7411702E-1,-5.9127774E-2,-7.676814E-2,-8.20247E-2,-9.659922E-2,-6.604442E-1,-1.1576182E0,-3.6925595E-2,4.573761E-1,4.719139E-2,1.640617E-1,-6.445553E-2,-3.5575172E-1,-2.2733654E-1,4.5450586E-1,1.8916551E0,4.5450586E-1,2.604877E-1,6.1152957E-2,-2.204315E-2,1.6835034E-1,3.7411702E-1,3.7411702E-1,1.3707921E-1,1.3287951E0,4.5450586E-1,9.5843434E-2,1.5869616E-2,-1.05458155E-1,4.5450586E-1,-1.2126875E-1,-1.2627741E0,-1.2570757E0,-4.923762E-1,3.0633355E-2,-5.3086746E-1,-9.2906326E-1,2.2268595E-1,-5.5502098E-2,-4.3036664E-1,-3.1450707E-1,-4.407595E-2,-2.107358E-2,1.968968E-2,4.2351806E-1,-1.8659966E-1,-9.829989E-1,-5.1395543E-2,-2.2733654E-1,1.8612279E0,4.8679104E-1,-9.8798764E-1,-1.2637453E0,2.949667E-3,1.8612279E0,2.5569439E-2,5.0072217E-1,1.1164023E-1,7.913569E-2,7.794883E-1,7.794883E-1,4.7004964E-2,1.3287951E0,2.2954337E-2,1.6255853E0,1.2808585E-1,9.8822705E-2,-7.3340714E-2,-8.5321836E-2,-1.0274872E0,-1.2715994E-1,-3.1106472E-3,-1.9195452E-2,-5.939519E-1,-1.0697503E0,1.4420509E-3,1.6647166E-2,-1.2030135E0,1.0082577E-1,-2.6686003E-2,-7.091403E-3,-4.113784E-2,-3.0187055E-2,2.3427287E-1,-5.5448342E-2,5.922649E-1,1.5675983E0,3.8322363E-2,1.5473294E-2,-5.6102335E-2,1.7063852E-1,-2.3913322E-1,1.3287951E0,-1.2030135E0,-2.2094738E-1,-4.256463E-2,-1.4794614E0,1.4683874E-1,2.4875395E-3,-5.5929616E-2,-9.99198E-3,5.331341E-2,-1.301413E-1,3.6749703E-1,5.6371905E-2,2.5740433E-2,2.1816652E-1,9.830239E-2,9.830239E-2,-1.0652744E0,1.2530749E-2,-2.1240613E-1,9.839517E-2,4.476419E-1,1.6431911E0,4.134003E-1,4.4087607E-1,6.435239E-2,1.0442804E0,-1.0473877E-1,-9.332498E-2,2.7985335E-3,-7.833481E-3,7.7356817E-3,-6.4957145E-5,-1.7253777E-2,-5.201729E-3,1.1565733E-3,-1.0713345E-2,-3.0076671E-2,-2.3434179E-2,6.8359375E-3,-1.1646977E-2,-3.654478E-2,-4.9534358E-2,-1.005629E-2,-2.013127E-3,9.360841E-3,-2.4740293E-3,1.664955E-2,1.7655531E-3,-1.3275926E-2,3.7453547E-3,-3.3582926E-2,-8.858476E-3,3.6464054E-3,9.590101E-3,-1.8280962E-2,-5.852933E-3,-6.390381E-3,-1.741612E-2,1.5319061E-2,6.0297847E-3,4.751492E-3,9.0985297E-4,-3.695965E-4,-2.689433E-3,-8.832169E-3,3.783581E-2,2.3982525E-4,3.4609437E-2,6.118202E-3,1.678669E-2,1.1362499E-2,2.1046204E-2,-7.902733E-3,6.9068493E-3,3.6356054E-2,2.7831212E-2,1.579671E-2,7.441041E-2,4.48415E-2,5.7129025E-2,7.986807E-2,6.196607E-2,-9.4206334E-4,-3.8304091E-3,2.36233E-2,3.997692E-2,4.6574768E-2,4.0404798E-4],"split_indices":[0,0,0,0,2,0,0,0,2,1,2,1,2,2,0,0,2,1,1,0,0,0,0,2,0,1,2,2,0,1,0,1,1,0,0,0,0,0,1,0,1,1,1,0,0,0,2,1,2,0,0,0,0,1,1,1,2,2,0,1,0,2,0,1,1,0,0,0,2,2,0,0,0,0,0,0,1,0,1,2,0,1,1,2,1,0,1,1,1,0,0,0,0,0,2,0,2,0,0,0,0,0,0,0,0,0,1,0,0,2,1,0,0,0,0,2,2,1,1,0,0,1,1,0,2,2,0,0,2,2,0,0,0,0,2,0,0,0,0,0,0,1,0,2,0,0,1,0,0,0,0,0,0,0,0,0,0,0,0,0,0,0,0,0,0,0,0,0,0,0,0,0,0,0,0,0,0,0,0,0,0,0,0,0,0,0,0,0,0,0,0,0,0,0,0,0,0,0,0,0,0,0,0,0,0,0,0,0,0,0,0,0,0],"split_type":[0,0,0,0,0,0,0,0,0,0,0,0,0,0,0,0,0,0,0,0,0,0,0,0,0,0,0,0,0,0,0,0,0,0,0,0,0,0,0,0,0,0,0,0,0,0,0,0,0,0,0,0,0,0,0,0,0,0,0,0,0,0,0,0,0,0,0,0,0,0,0,0,0,0,0,0,0,0,0,0,0,0,0,0,0,0,0,0,0,0,0,0,0,0,0,0,0,0,0,0,0,0,0,0,0,0,0,0,0,0,0,0,0,0,0,0,0,0,0,0,0,0,0,0,0,0,0,0,0,0,0,0,0,0,0,0,0,0,0,0,0,0,0,0,0,0,0,0,0,0,0,0,0,0,0,0,0,0,0,0,0,0,0,0,0,0,0,0,0,0,0,0,0,0,0,0,0,0,0,0,0,0,0,0,0,0,0,0,0,0,0,0,0,0,0,0,0,0,0,0,0,0,0,0,0,0,0,0,0,0,0,0,0],"sum_hessian":[3.991E3,1.855E3,2.136E3,1.263E3,5.92E2,7.32E2,1.404E3,8.58E2,4.05E2,1.33E2,4.59E2,4.36E2,2.96E2,9.19E2,4.85E2,1.25E2,7.33E2,1.25E2,2.8E2,3.1E1,1.02E2,3.88E2,7.1E1,3.23E2,1.13E2,2.09E2,8.7E1,6.64E2,2.55E2,2.81E2,2.04E2,2.29E2,5.04E2,9.6E1,2.9E1,2.28E2,5.2E1,2.1E1,1E1,1.7E1,8.5E1,1.19E2,2.69E2,5.4E1,1.7E1,3.4E1,2.89E2,9.5E1,1.8E1,1.83E2,2.6E1,2E0,8.5E1,9.9E1,5.65E2,1.87E2,6.8E1,2.05E2,7.6E1,1.98E2,3.1E1,3.86E2,1.18E2,5E0,1.6E1,6E0,4E0,6.1E1,2.4E1,7.3E1,4.6E1,2.07E2,6.2E1,1.4E1,3E0,7E0,2.7E1,2.31E2,5.8E1,7.7E1,1.8E1,1.3E1,5E0,1.37E2,4.6E1,1E0,2.5E1,2.2E1,6.3E1,8.6E1,1.3E1,3.53E2,2.12E2,1.25E2,6.2E1,2E0,6.6E1,1.66E2,3.9E1,7.3E1,1.25E2,3.5E2,3.6E1,1E0,4E0,6E0,1E1,1E0,5E0,3.5E1,2.6E1,2.3E1,1E0,5.2E1,2.1E1,1.73E2,3.4E1,5.8E1,4E0,2.4E1,3E0,9.3E1,1.38E2,2.4E1,3.4E1,1.6E1,6.1E1,1E0,1.7E1,1.1E1,2E0,2E0,3E0,1.5E1,1.22E2,2E0,4.4E1,1.9E1,6E0,1.3E1,9E0,5.8E1,5E0,2.63E2,9E1,1.11E2,1.01E2,2E0,6E1,5.9E1,7E0,1.77E2,1.73E2,3E0,3E0,7E0,3E0,3E1,5E0,1.9E1,7E0,1.23E2,5E1,1E0,3.3E1,3.1E1,2.7E1,2E0,2E0,4.2E1,5.1E1,1.3E2,8E0,2E0,2.2E1,1E0,3.3E1,1.4E1,2E0,1.3E1,4.8E1,2E0,1.5E1,8E0,3E0,1E0,1E0,1E0,1E0,1E0,1.21E2,1E0,1E0,2E0,4E0,6E0,7E0,2E0,7E0,2.3E1,3.5E1,1E0,2.62E2,2.5E1,8.6E1,5.4E1,4.7E1,1E0,1E0,1E1,5E1,6E0,1E0],"tree_param":{"num_deleted":"0","num_feature":"3","num_nodes":"213","size_leaf_vector":"1"}},{"base_weights":[4.0137817E-5,-6.769984E-1,5.969954E-1,-8.59782E-1,-2.816237E-1,1.7000863E-1,8.147744E-1,-9.4817793E-1,-7.2680587E-1,-9.839357E-2,-3.323528E-1,5.7254482E-2,3.2964578E-1,6.4021146E-1,1.1435462E0,-8.46495E-1,-1.0064554E0,-5.870446E-1,-7.8263366E-1,3.120809E-2,-1.6506428E-1,-3.004051E-1,-5.07881E-1,9.7296886E-2,-5.4445885E-2,3.7310433E-1,2.2219194E-1,7.165971E-1,4.3928704E-1,1.0568321E0,1.29296E-1,-1.0829263E-1,-7.826374E-1,-1.2768772E-1,-9.8628044E-1,-5.4363734E-1,-7.0609294E-2,-7.566564E-1,-8.8688105E-2,-7.5228855E-2,1.3628817E-1,-1.1679346E-1,-2.5591403E-1,-3.5273075E-1,-2.0572828E-1,-5.31644E-1,-1.6580153E-1,3.1422824E-1,7.12896E-2,-7.49641E-2,7.334867E-2,3.9507258E-1,2.0957614E-1,-2.05736E-2,2.3453604E-1,9.757619E-1,6.695422E-1,3.9653704E-1,5.6665736E-1,1.1593227E0,9.391976E-1,-7.380318E-2,-9.2667274E-2,-9.10388E-1,-1.0621744E-1,-5.511504E-2,-3.1529188E-1,-7.3448664E-1,-9.028944E-2,-2.022115E-2,-4.6070885E-2,5.6343414E-2,1.8365669E-1,-1.515725E-1,-6.9887163E-3,-2.636433E-1,-1.0104609E-2,-3.1581208E-1,-4.7696579E-1,-1.6019394E-1,-3.1510168E-1,-5.5692E-2,-3.8769983E-2,-1.9493043E-2,-7.1695806E-3,3.2055914E-1,5.5819987E-3,1.0145753E-1,-4.798648E-2,-4.7576204E-2,-1.848946E-1,1.1421328E-1,-7.7798488E-3,3.642836E-1,5.4097986E-1,2.8021813E-3,2.1548125E-1,9.854672E-2,2.7162933E-1,9.839681E-2,3.82439E-2,7.122789E-1,5.36918E-1,4.133924E-1,2.763484E-1,5.8286797E-2,3.5602175E-2,1.21425144E-1,9.061413E-2,9.875517E-2,8.1486374E-2,-8.8735774E-2,-1.10062875E-1,-8.333373E-3,-3.450168E-2,-7.6183975E-2,-6.404698E-2,-3.3138276E-3,-1.45285055E-2,1.5527177E-2,2.8098954E-2,2.2352943E-1,6.717987E-2,-1.7870773E-2,-1.0244897E-1,4.584706E-2,-5.89509E-2,-2.7227072E-2,-1.038669E-2,-4.07492E-1,-2.9149127E-1,-2.3765048E-2,-4.9080443E-1,-1.956298E-1,-5.3203E-2,-3.542651E-1,-1.0926944E-1,2.616445E-1,3.9694645E-2,6.119233E-2,1.7266665E-1,3.2315828E-2,-8.898805E-2,-2.5849385E-2,-1.6673017E-1,-4.0436413E-2,-1.5023719E-1,1.2520066E-1,3.5855133E-2,2.8651166E-1,3.9649427E-2,2.2071202E-1,5.559736E-2,2.3295073E-2,1.3478538E-1,1.4270373E-2,2.8721068E-2,2.866482E-1,1.0194622E-1,6.5782213E-1,8.872742E-2,4.233273E-1,5.852505E-1,3.4106874E-1,4.33894E-2,3.1672955E-2,2.9465553E-1,-2.8653622E-3,3.9471467E-3,1.1857415E-2,-1.4690263E-3,1.4544119E-2,3.0430151E-2,6.209215E-4,1.0575724E-2,-3.9906503E-4,-1.1450685E-2,-2.0551682E-3,5.8268546E-3,-1.0016382E-2,-1.4190389E-3,-3.4827158E-2,-4.883663E-2,-3.0746117E-2,-2.438469E-2,-5.078991E-2,-3.0835336E-2,-1.4599408E-2,-2.4534425E-2,-1.4250437E-2,-6.35412E-5,-3.6623966E-2,-1.0844803E-2,-1.1850357E-3,-1.2149354E-2,3.2908417E-2,1.8364113E-2,1.0092705E-2,3.1608883E-3,1.956121E-2,1.109768E-2,-1.3452689E-3,6.3949227E-3,-3.190377E-2,-7.4147857E-3,4.4966727E-3,-4.8503703E-3,-2.2919219E-2,-6.606945E-3,-5.964343E-3,-1.578337E-2,1.4426309E-2,5.5775642E-3,4.5139077E-3,8.6436275E-4,4.1457128E-2,2.4304582E-2,2.278328E-4,3.2878973E-2,5.710316E-3,1.5443764E-2,-7.3758923E-3,6.8538054E-3,3.2113563E-2,2.4535852E-2,1.2216329E-3,1.14865145E-2,7.027881E-2,5.9473485E-2,2.0360196E-2,4.3392207E-2,8.2613E-3,5.8962572E-2,3.6343273E-2,1.0288906E-2,-3.6388875E-3,8.389831E-3,1.9638533E-2,3.2196146E-2],"categories":[],"categories_nodes":[],"categories_segments":[],"categories_sizes":[],"default_left":[0,0,0,0,0,0,0,0,0,0,0,0,0,0,0,0,0,0,0,0,0,0,0,0,0,0,0,0,0,0,0,0,0,0,0,0,0,0,0,0,0,0,0,0,0,0,0,0,0,0,0,0,0,0,0,0,0,0,0,0,0,0,0,0,0,0,0,0,0,0,0,0,0,0,0,0,0,0,0,0,0,0,0,0,0,0,0,0,0,0,0,0,0,0,0,0,0,0,0,0,0,0,0,0,0,0,0,0,0,0,0,0,0,0,0,0,0,0,0,0,0,0,0,0,0,0,0,0,0,0,0,0,0,0,0,0,0,0,0,0,0,0,0,0,0,0,0,0,0,0,0,0,0,0,0,0,0,0,0,0,0,0,0,0,0,0,0,0,0,0,0,0,0,0,0,0,0,0,0,0,0,0,0,0,0,0,0,0,0,0,0,0,0,0,0,0,0,0,0,0,0,0,0,0,0,0,0,0,0,0,0,0,0,0,0,0,0,0,0,0,0,0,0,0,0,0,0,0,0,0,0,0,0,0,0,0,0,0,0],"id":3,"left_children":[1,3,5,7,9,11,13,15,17,19,21,23,25,27,29,31,33,35,37,39,41,43,45,47,49,51,53,55,57,59,-1,-1,61,-1,63,65,-1,67,-1,69,71,73,75,77,79,81,83,85,87,89,91,93,95,-1,97,99,101,103,105,107,109,-1,-1,111,-1,-1,113,115,-1,-1,117,119,121,123,125,127,-1,129,131,133,135,-1,-1,-1,-1,137,-1,139,141,143,145,147,-1,149,151,-1,153,155,157,-1,-1,159,161,163,165,-1,-1,-1,-1,-1,-1,-1,-1,-1,-1,-1,-1,167,-1,-1,169,171,173,-1,175,177,179,-1,-1,181,183,-1,185,187,189,191,193,195,-1,197,199,201,203,205,207,-1,209,211,213,215,-1,217,-1,-1,219,-1,221,223,225,227,-1,229,231,233,-1,235,237,-1,-1,-1,-1,-1,-1,-1,-1,-1,-1,-1,-1,-1,-1,-1,-1,-1,-1,-1,-1,-1,-1,-1,-1,-1,-1,-1,-1,-1,-1,-1,-1,-1,-1,-1,-1,-1,-1,-1,-1,-1,-1,-1,-1,-1,-1,-1,-1,-1,-1,-1,-1,-1,-1,-1,-1,-1,-1,-1,-1,-1,-1,-1,-1,-1,-1,-1,-1,-1,-1,-1,-1],"loss_changes":[1.6138177E3,1.3497125E2,1.9718365E2,1.434491E1,5.47929E0,1.2904943E1,7.990277E1,3.6813354E0,3.5588684E0,1.1284338E0,2.4494133E0,1.8927982E0,1.3040276E0,1.3805115E1,4.930298E0,3.4553833E0,1.3648376E0,3.9644623E-1,3.173828E-1,5.1355094E-1,3.4725475E-1,1.8842697E0,4.808712E-1,1.7321973E0,2.9917553E-1,6.716118E-1,5.131016E-1,7.45636E0,1.169239E0,2.6848145E0,0E0,0E0,7.8092957E-1,0E0,1.6364441E0,2.3517609E-2,0E0,3.0621338E-1,0E0,7.584272E-2,7.675007E-2,2.2043717E-1,8.073211E-3,1.0097771E0,6.6169786E-1,2.057457E-2,2.4714917E-3,3.609276E-2,1.0087974E0,2.832477E-1,1.0771076E-1,6.295204E-1,2.290845E-2,0E0,4.0704107E-1,1.105957E-1,2.825592E0,2.8079796E-1,4.1866302E-3,1.1665497E0,1.0310364E-1,0E0,0E0,4.4189453E-2,0E0,0E0,1.2618005E-2,1.9355774E-1,0E0,0E0,8.436066E-2,2.3578808E-2,5.0002843E-2,4.034257E-2,4.388466E-2,8.938432E-3,0E0,3.2270622E-1,6.882E-2,3.800974E-1,2.9179478E-1,0E0,0E0,0E0,0E0,4.0151596E-2,0E0,6.288307E-1,1.905494E-1,2.002082E-1,8.376813E-2,6.7032725E-3,0E0,2.7468872E-1,2.1349907E-2,0E0,5.2541494E-3,5.7567254E-2,1.4152336E-1,0E0,0E0,3.466446E0,5.318451E-1,1.0259628E-1,1.11608505E-1,0E0,0E0,0E0,0E0,0E0,0E0,0E0,0E0,0E0,0E0,0E0,0E0,1.739356E-2,0E0,0E0,3.6584146E-2,1.8815458E-2,1.1103768E-2,0E0,2.0912603E-2,7.795686E-3,1.3336327E-2,0E0,0E0,1.6702652E-2,4.6765327E-2,0E0,5.572319E-3,1.541872E-1,1.266571E-1,6.0362816E-2,8.087151E-3,5.0037503E-2,0E0,1.6608036E-1,9.153199E-2,2.9816564E-2,1.0607535E-1,1.1127283E-1,6.0307056E-2,0E0,2.973795E-3,6.511137E-3,3.6772504E-4,1.7198467E-1,0E0,7.0074335E-2,0E0,0E0,1.8675327E-3,0E0,4.177929E-2,8.069038E-3,6.711267E-3,5.124817E-1,0E0,1.8737793E-2,1.64608E-1,1.8632555E-1,0E0,1.3716623E-2,3.8554668E-3,0E0,0E0,0E0,0E0,0E0,0E0,0E0,0E0,0E0,0E0,0E0,0E0,0E0,0E0,0E0,0E0,0E0,0E0,0E0,0E0,0E0,0E0,0E0,0E0,0E0,0E0,0E0,0E0,0E0,0E0,0E0,0E0,0E0,0E0,0E0,0E0,0E0,0E0,0E0,0E0,0E0,0E0,0E0,0E0,0E0,0E0,0E0,0E0,0E0,0E0,0E0,0E0,0E0,0E0,0E0,0E0,0E0,0E0,0E0,0E0,0E0,0E0,0E0,0E0,0E0,0E0,0E0,0E0,0E0,0E0,0E0,0E0],"parents":[2147483647,0,0,1,1,2,2,3,3,4,4,5,5,6,6,7,7,8,8,9,9,10,10,11,11,12,12,13,13,14,14,15,15,16,16,17,17,18,18,19,19,20,20,21,21,22,22,23,23,24,24,25,25,26,26,27,27,28,28,29,29,32,32,34,34,35,35,37,37,39,39,40,40,41,41,42,42,43,43,44,44,45,45,46,46,47,47,48,48,49,49,50,50,51,51,52,52,54,54,55,55,56,56,57,57,58,58,59,59,60,60,63,63,66,66,67,67,70,70,71,71,72,72,73,73,74,74,75,75,77,77,78,78,79,79,80,80,85,85,87,87,88,88,89,89,90,90,91,91,93,93,94,94,96,96,97,97,98,98,101,101,102,102,103,103,104,104,117,117,120,120,121,121,122,122,124,124,125,125,126,126,129,129,130,130,132,132,133,133,134,134,135,135,136,136,137,137,139,139,140,140,141,141,142,142,143,143,144,144,146,146,147,147,148,148,149,149,151,151,154,154,156,156,157,157,158,158,159,159,161,161,162,162,163,163,165,165,166,166],"right_children":[2,4,6,8,10,12,14,16,18,20,22,24,26,28,30,32,34,36,38,40,42,44,46,48,50,52,54,56,58,60,-1,-1,62,-1,64,66,-1,68,-1,70,72,74,76,78,80,82,84,86,88,90,92,94,96,-1,98,100,102,104,106,108,110,-1,-1,112,-1,-1,114,116,-1,-1,118,120,122,124,126,128,-1,130,132,134,136,-1,-1,-1,-1,138,-1,140,142,144,146,148,-1,150,152,-1,154,156,158,-1,-1,160,162,164,166,-1,-1,-1,-1,-1,-1,-1,-1,-1,-1,-1,-1,168,-1,-1,170,172,174,-1,176,178,180,-1,-1,182,184,-1,186,188,190,192,194,196,-1,198,200,202,204,206,208,-1,210,212,214,216,-1,218,-1,-1,220,-1,222,224,226,228,-1,230,232,234,-1,236,238,-1,-1,-1,-1,-1,-1,-1,-1,-1,-1,-1,-1,-1,-1,-1,-1,-1,-1,-1,-1,-1,-1,-1,-1,-1,-1,-1,-1,-1,-1,-1,-1,-1,-1,-1,-1,-1,-1,-1,-1,-1,-1,-1,-1,-1,-1,-1,-1,-1,-1,-1,-1,-1,-1,-1,-1,-1,-1,-1,-1,-1,-1,-1,-1,-1,-1,-1,-1,-1,-1,-1,-1],"split_conditions":[-2.524832E-1,-7.1371144E-1,3.7690675E-1,-9.6766704E-1,-1.9371147E-1,2.9430548E-2,1.18978E0,-1.9371147E-1,-1.9371147E-1,2.5569439E-2,4.5450586E-1,4.573761E-1,4.5450586E-1,4.5450586E-1,2.0091681E0,-1.1379702E0,-1.1096971E0,4.573761E-1,4.2351806E-1,-5.379138E-1,4.573761E-1,-5.226334E-1,-3.5575172E-1,-1.9371147E-1,-5.5929616E-2,1.5970964E0,1.3287951E0,-6.6605514E-1,8.011458E-1,3.7411702E-1,1.29296E-1,-1.0829263E-1,4.2898703E-1,-1.2768772E-1,3.5220716E-2,-7.7713156E-1,-7.0609294E-2,4.5450586E-1,-8.8688105E-2,-6.8413323E-1,-4.923762E-1,-4.923762E-1,-1.1872953E0,1.7063852E-1,1.3707921E-1,-4.741238E-1,-2.666673E-1,4.2898703E-1,4.5450586E-1,1.8916551E0,4.5450586E-1,3.283239E-1,6.1152957E-2,-2.05736E-2,1.5567671E-1,1.6431911E0,5.0072217E-1,1.5970964E0,1.8269393E0,4.50959E-1,1.7572508E0,-7.380318E-2,-9.2667274E-2,4.5450586E-1,-1.0621744E-1,-5.511504E-2,-2.3667622E0,-8.210969E-1,-9.028944E-2,-2.022115E-2,-9.829989E-1,-5.3086746E-1,-1.0652744E0,-5.800652E-1,7.483185E-2,-4.1061327E-1,-1.0104609E-2,-6.3961875E-1,-5.1395543E-2,-3.9035267E-1,-3.1450707E-1,-5.5692E-2,-3.8769983E-2,-1.9493043E-2,-7.1695806E-3,-1.6582356E-1,5.5819987E-3,-1.4854431E-1,-1.0652744E0,1.396107E0,-2.2733654E-1,1.8612279E0,-7.7798488E-3,1.6835034E-1,-1.2637453E0,2.8021813E-3,1.8612279E0,-1.4084705E-2,5.0072217E-1,9.839681E-2,3.82439E-2,8.5089576E-1,6.2936187E-1,4.4087607E-1,1.3287951E0,5.8286797E-2,3.5602175E-2,1.21425144E-1,9.061413E-2,9.875517E-2,8.1486374E-2,-8.8735774E-2,-1.10062875E-1,-8.333373E-3,-3.450168E-2,-7.6183975E-2,-6.404698E-2,-1.3062768E0,-1.45285055E-2,1.5527177E-2,-2.4656155E0,-1.1576182E0,-1.4084705E-2,-1.7870773E-2,-5.676909E-1,3.5220716E-2,-1.3062768E0,-2.7227072E-2,-1.038669E-2,-9.529197E-2,2.3427287E-1,-2.3765048E-2,2.613387E-1,-1.051727E0,5.378007E-2,3.1111693E-1,-5.5448342E-2,-2.319608E-2,3.9694645E-2,-9.529197E-2,7.483185E-2,-1.4854431E-1,1.3287951E0,-5.1395543E-2,-1.4123394E-1,-4.0436413E-2,-1.4794614E0,1.4683874E-1,2.4875395E-3,-1.1239822E-1,3.9649427E-2,3.6749703E-1,5.559736E-2,2.3295073E-2,2.1816652E-1,1.4270373E-2,9.830239E-2,-9.529197E-2,1.6835034E-1,3.6722902E-2,8.872742E-2,-3.6192E-2,-1.301413E-1,1.640617E-1,4.33894E-2,4.2825E-1,4.8550883E-1,-2.8653622E-3,3.9471467E-3,1.1857415E-2,-1.4690263E-3,1.4544119E-2,3.0430151E-2,6.209215E-4,1.0575724E-2,-3.9906503E-4,-1.1450685E-2,-2.0551682E-3,5.8268546E-3,-1.0016382E-2,-1.4190389E-3,-3.4827158E-2,-4.883663E-2,-3.0746117E-2,-2.438469E-2,-5.078991E-2,-3.0835336E-2,-1.4599408E-2,-2.4534425E-2,-1.4250437E-2,-6.35412E-5,-3.6623966E-2,-1.0844803E-2,-1.1850357E-3,-1.2149354E-2,3.2908417E-2,1.8364113E-2,1.0092705E-2,3.1608883E-3,1.956121E-2,1.109768E-2,-1.3452689E-3,6.3949227E-3,-3.190377E-2,-7.4147857E-3,4.4966727E-3,-4.8503703E-3,-2.2919219E-2,-6.606945E-3,-5.964343E-3,-1.578337E-2,1.4426309E-2,5.5775642E-3,4.5139077E-3,8.6436275E-4,4.1457128E-2,2.4304582E-2,2.278328E-4,3.2878973E-2,5.710316E-3,1.5443764E-2,-7.3758923E-3,6.8538054E-3,3.2113563E-2,2.4535852E-2,1.2216329E-3,1.14865145E-2,7.027881E-2,5.9473485E-2,2.0360196E-2,4.3392207E-2,8.2613E-3,5.8962572E-2,3.6343273E-2,1.0288906E-2,-3.6388875E-3,8.389831E-3,1.9638533E-2,3.2196146E-2],"split_indices":[0,0,0,0,2,0,0,2,2,1,2,1,2,2,0,0,0,1,1,0,1,0,0,2,0,1,2,2,0,1,0,0,1,0,1,0,0,2,0,0,0,0,2,1,1,0,0,1,2,1,2,0,0,0,0,1,1,1,1,2,1,0,0,2,0,0,2,0,0,0,1,0,1,0,1,0,0,0,2,0,0,0,0,0,0,0,0,0,1,2,0,1,0,0,1,0,1,1,1,0,0,0,0,0,2,0,0,0,0,0,0,0,0,0,0,0,0,2,0,0,2,1,1,0,0,1,2,0,0,1,2,0,2,1,2,2,2,1,0,1,1,0,2,2,0,0,2,2,0,2,0,0,0,0,0,0,0,1,0,1,0,2,2,1,0,0,0,0,0,0,0,0,0,0,0,0,0,0,0,0,0,0,0,0,0,0,0,0,0,0,0,0,0,0,0,0,0,0,0,0,0,0,0,0,0,0,0,0,0,0,0,0,0,0,0,0,0,0,0,0,0,0,0,0,0,0,0,0,0,0,0,0,0,0,0,0,0,0,0],"split_type":[0,0,0,0,0,0,0,0,0,0,0,0,0,0,0,0,0,0,0,0,0,0,0,0,0,0,0,0,0,0,0,0,0,0,0,0,0,0,0,0,0,0,0,0,0,0,0,0,0,0,0,0,0,0,0,0,0,0,0,0,0,0,0,0,0,0,0,0,0,0,0,0,0,0,0,0,0,0,0,0,0,0,0,0,0,0,0,0,0,0,0,0,0,0,0,0,0,0,0,0,0,0,0,0,0,0,0,0,0,0,0,0,0,0,0,0,0,0,0,0,0,0,0,0,0,0,0,0,0,0,0,0,0,0,0,0,0,0,0,0,0,0,0,0,0,0,0,0,0,0,0,0,0,0,0,0,0,0,0,0,0,0,0,0,0,0,0,0,0,0,0,0,0,0,0,0,0,0,0,0,0,0,0,0,0,0,0,0,0,0,0,0,0,0,0,0,0,0,0,0,0,0,0,0,0,0,0,0,0,0,0,0,0,0,0,0,0,0,0,0,0,0,0,0,0,0,0,0,0,0,0,0,0,0,0,0,0,0,0],"sum_hessian":[3.991E3,1.87E3,2.121E3,1.278E3,5.92E2,7.17E2,1.404E3,7.64E2,5.14E2,1.29E2,4.63E2,4.21E2,2.96E2,9.19E2,4.85E2,2.84E2,4.8E2,1.5E2,3.64E2,4.4E1,8.5E1,3.94E2,6.9E1,3.1E2,1.11E2,2.09E2,8.7E1,6.64E2,2.55E2,3.12E2,1.73E2,5.7E1,2.27E2,2.9E1,4.51E2,1.14E2,3.6E1,2.98E2,6.6E1,2.2E1,2.2E1,5.7E1,2.8E1,2.52E2,1.42E2,6.4E1,5E0,3.2E1,2.78E2,9.6E1,1.5E1,1.83E2,2.6E1,2E0,8.5E1,9.9E1,5.65E2,1.94E2,6.1E1,1.62E2,1.5E2,1.78E2,4.9E1,2.32E2,2.19E2,1.09E2,5E0,2.64E2,3.4E1,3E0,1.9E1,9E0,1.3E1,4.3E1,1.4E1,2.6E1,2E0,1.97E2,5.5E1,1.02E2,4E1,5.2E1,1.2E1,3E0,2E0,3.1E1,1E0,2.22E2,5.6E1,7.8E1,1.8E1,1.2E1,3E0,1.54E2,2.9E1,1E0,2.5E1,1.9E1,6.6E1,9.7E1,2E0,4.24E2,1.41E2,1.68E2,2.6E1,5.5E1,6E0,1.3E2,3.2E1,1.03E2,4.7E1,2.12E2,2E1,1E0,4E0,1.99E2,6.5E1,1.4E1,5E0,1E0,8E0,9E0,4E0,2.6E1,1.7E1,7E0,7E0,2.4E1,2E0,3.8E1,1.59E2,4E0,5.1E1,7.6E1,2.6E1,3.3E1,7E0,2E1,1.1E1,1.43E2,7.9E1,1.9E1,3.7E1,6.7E1,1.1E1,1E0,1.7E1,1E1,2E0,4.8E1,1.06E2,2E0,2.7E1,1.9E1,6E0,1.1E1,8E0,6E1,6E0,3.27E2,9.7E1,4.5E1,9.6E1,4.1E1,1.27E2,2E0,2.4E1,9E0,5E0,2E0,6E0,6E0,3E0,2E0,2E0,2E0,1.5E1,1E0,6E0,3E0,4E0,2.5E1,1.3E1,1.15E2,4.4E1,4.5E1,6E0,4E1,3.6E1,9E0,1.7E1,3.1E1,2E0,1E0,6E0,9E0,1.1E1,6E1,8.3E1,5.6E1,2.3E1,8E0,1.1E1,1E0,3.6E1,1.6E1,5.1E1,6E0,5E0,2E0,1.5E1,7E0,3E0,1E0,1E0,1E1,3.8E1,1E0,1E0,2E0,4E0,2E0,6E0,2.9E1,3.1E1,1E0,5E0,1.85E2,1.42E2,3E0,4.2E1,1E0,9.5E1,3.7E1,4E0,1E0,1E0,7E0,1.7E1],"tree_param":{"num_deleted":"0","num_feature":"3","num_nodes":"239","size_leaf_vector":"1"}},{"base_weights":[4.0869195E-6,-6.0563755E-1,5.4212093E-1,-7.747384E-1,-2.4891785E-1,3.6803806E-1,9.68734E-1,-8.431126E-1,-6.333888E-1,-8.3681315E-2,-2.9456395E-1,1.2812768E-1,5.391776E-1,7.663526E-1,1.0563912E0,-9.684438E-2,-8.028524E-1,-5.1262605E-1,-6.8617254E-1,3.6106758E-2,-1.4743257E-1,-3.2668176E-1,-1.3625778E-1,5.4791614E-2,2.6383385E-1,8.578626E-1,5.001308E-1,8.5779864E-1,6.2932205E-1,9.8812145E-1,1.1831563E-1,-6.765554E-1,-8.5876006E-1,-4.1158903E-1,-5.520814E-1,-6.6131425E-1,-7.8256615E-2,-6.916987E-2,1.31517E-1,-1.0575859E-1,-2.2308782E-1,-2.9714432E-1,-4.898588E-2,-1.9441721E-1,-7.335649E-2,9.079839E-2,-4.573454E-2,3.025433E-1,1.6317956E-1,9.0794235E-1,5.7762235E-1,5.6251746E-1,3.6923704E-1,8.927592E-2,6.6712044E-2,5.414073E-1,7.144845E-2,1.0341141E0,7.934583E-1,-6.4494735E-1,-8.544583E-2,-7.92302E-1,-9.286585E-2,-4.2643008E-1,-1.6770184E-2,-5.8510788E-2,-4.5569554E-2,-6.4120686E-1,-7.834219E-2,-1.8704558E-2,-4.213624E-2,5.3300668E-2,1.7218238E-1,-1.3709061E-1,-6.8007787E-3,-2.3196822E-1,1.7221927E-3,-2.6463354E-1,-4.1109237E-1,-1.2671837E-1,-2.776424E-1,-4.521476E-3,-1.21926226E-1,2.9175663E-1,6.7389116E-2,-2.001232E-2,-1.4537539E-1,3.208498E-1,1.6110139E-1,-1.9202026E-2,1.7797333E-1,1.0290716E-1,8.107976E-2,2.1034924E-2,6.125688E-2,6.09983E-1,4.7072023E-1,3.3053812E-1,4.4274616E-1,5.61557E-1,2.0455825E-1,1.0728716E-1,7.859729E-2,8.041466E-2,3.294573E-2,-5.76539E-1,-6.8166114E-2,-7.679703E-2,-9.863602E-2,-4.3291338E-2,-9.327436E-3,-6.510049E-2,-4.4340562E-2,-2.9103914E-3,-1.3317816E-2,1.4750815E-2,2.6443375E-2,2.0256744E-1,8.7779365E-2,-1.6149871E-1,-9.2862315E-2,4.173374E-2,-5.44852E-2,-2.386722E-1,-9.430965E-3,-3.191025E-1,-2.2330137E-1,-3.569414E-1,-4.901295E-1,-8.7604225E-2,-2.6565408E-2,-2.104541E-1,-3.5315916E-2,1.7234653E-2,-1.1904701E-2,-7.28494E-2,-1.5177758E-1,2.9794657E-1,5.302906E-3,9.4550565E-2,-4.0506553E-2,-4.790833E-4,-1.4205511E-1,-3.8414598E-2,-1.1571269E-1,4.4519067E-1,3.0206683E-1,2.6620626E-3,1.6677824E-1,8.937955E-2,2.1592338E-1,5.5870736E-1,6.842965E-1,3.8639355E-1,5.191104E-1,3.0580878E-2,3.357125E-1,4.6976116E-2,3.2418033E-1,7.8482395E-3,5.719312E-2,-2.5305033E-3,2.8961435E-2,-5.9445478E-2,-3.6562424E-2,-6.6154636E-3,1.1908312E-3,1.1066914E-2,-1.3431004E-3,1.3779086E-2,2.8147876E-2,5.79532E-4,1.2732255E-2,-1.6820135E-2,-8.090818E-3,-3.7245752E-4,-1.0377175E-2,2.1107197E-4,6.5085413E-3,-9.265149E-3,-1.3055134E-3,-2.4613287E-2,-9.694259E-3,-3.6888797E-2,-2.8855199E-2,-2.8849786E-2,-2.058678E-2,-4.465029E-2,-3.134774E-2,-1.1498046E-2,-5.00136E-2,7.2241067E-3,-9.920855E-3,-8.825931E-3,-2.8512765E-2,-3.1231132E-3,4.943724E-3,-9.5411725E-3,1.9120694E-3,-1.1257887E-3,-1.617208E-2,2.4272015E-2,3.6055956E-2,3.523765E-3,1.3351728E-2,3.224746E-3,-8.998643E-3,-2.1242069E-3,1.0177554E-2,-1.9555133E-2,-7.590764E-3,-1.3642174E-2,6.406188E-4,1.1941862E-2,4.5894757E-2,1.9371694E-2,3.2505017E-2,1.7395774E-2,7.050165E-3,1.2962262E-2,2.5791063E-3,2.4912646E-2,1.4639798E-2,3.68251E-2,5.704927E-2,5.6158077E-2,7.295783E-2,3.983901E-2,1.9003265E-2,5.7031225E-2,4.652741E-2,-3.2442254E-3,1.0982513E-2,3.6288645E-2,2.77919E-2,7.970333E-3,3.3333443E-2],"categories":[],"categories_nodes":[],"categories_segments":[],"categories_sizes":[],"default_left":[0,0,0,0,0,0,0,0,0,0,0,0,0,0,0,0,0,0,0,0,0,0,0,0,0,0,0,0,0,0,0,0,0,0,0,0,0,0,0,0,0,0,0,0,0,0,0,0,0,0,0,0,0,0,0,0,0,0,0,0,0,0,0,0,0,0,0,0,0,0,0,0,0,0,0,0,0,0,0,0,0,0,0,0,0,0,0,0,0,0,0,0,0,0,0,0,0,0,0,0,0,0,0,0,0,0,0,0,0,0,0,0,0,0,0,0,0,0,0,0,0,0,0,0,0,0,0,0,0,0,0,0,0,0,0,0,0,0,0,0,0,0,0,0,0,0,0,0,0,0,0,0,0,0,0,0,0,0,0,0,0,0,0,0,0,0,0,0,0,0,0,0,0,0,0,0,0,0,0,0,0,0,0,0,0,0,0,0,0,0,0,0,0,0,0,0,0,0,0,0,0,0,0,0,0,0,0,0,0,0,0,0,0,0,0,0,0,0,0,0,0,0,0,0,0,0,0,0,0,0,0,0,0,0,0,0,0],"id":4,"left_children":[1,3,5,7,9,11,13,15,17,19,21,23,25,27,29,-1,31,33,35,37,39,41,43,45,47,49,51,53,55,57,-1,59,61,63,65,67,-1,69,71,73,75,77,-1,79,81,83,85,87,89,91,93,95,97,-1,-1,99,-1,101,103,105,-1,107,-1,109,-1,-1,-1,111,-1,-1,113,115,117,119,121,123,-1,125,127,129,131,133,135,137,139,141,143,145,147,-1,149,-1,-1,-1,-1,151,153,155,157,159,161,-1,-1,-1,-1,163,-1,-1,-1,-1,-1,-1,-1,165,-1,-1,167,169,171,173,175,177,179,181,-1,183,185,187,189,191,-1,193,-1,195,-1,197,199,201,-1,203,205,207,209,-1,211,213,215,-1,217,219,221,223,225,227,229,231,233,-1,235,-1,-1,-1,-1,-1,-1,-1,-1,-1,-1,-1,-1,-1,-1,-1,-1,-1,-1,-1,-1,-1,-1,-1,-1,-1,-1,-1,-1,-1,-1,-1,-1,-1,-1,-1,-1,-1,-1,-1,-1,-1,-1,-1,-1,-1,-1,-1,-1,-1,-1,-1,-1,-1,-1,-1,-1,-1,-1,-1,-1,-1,-1,-1,-1,-1,-1,-1,-1,-1,-1,-1,-1,-1,-1,-1,-1,-1,-1],"loss_changes":[1.3110159E3,1.1357373E2,1.5612201E2,1.1827087E1,4.5611305E0,6.143602E1,1.0011963E1,3.5568848E0,2.3318481E0,1.0209963E0,2.375679E0,6.2056417E0,1.0446716E1,1.815979E0,2.4915771E0,0E0,4.0509644E0,2.989807E-1,1.773529E-1,4.81187E-1,2.5070512E-1,1.7582817E0,2.8571904E-1,1.477339E0,8.03916E-1,7.947922E-1,6.1699524E0,1.3770294E-1,2.0464706E-1,1.6953125E0,0E0,6.072922E-1,1.3592834E0,7.688761E-2,2.6229858E-2,7.9566956E-2,0E0,6.54106E-2,7.033998E-2,1.7889947E-1,6.801629E-2,1.1396389E0,0E0,2.0145607E-1,1.3652395E-1,1.3916249E0,2.7389294E-1,3.5483265E-1,3.652234E-1,8.345795E-2,8.933973E-2,2.0091095E0,5.790596E-1,0E0,0E0,1.769886E-1,0E0,1.3110352E0,2.2712708E-2,5.656433E-2,0E0,3.6628723E-1,0E0,4.1698456E-2,0E0,0E0,0E0,1.1638641E-1,0E0,0E0,7.1036324E-2,2.1400962E-2,2.3252219E-2,3.2502055E-2,3.6988985E-2,4.2538643E-3,0E0,5.2534485E-1,1.3748741E-1,1.1258635E-1,1.7005324E-2,4.6901114E-2,2.4103314E-2,3.000927E-2,7.9509246E-1,2.0733044E-1,1.1136615E-1,1.8781948E-1,1.0828853E-2,0E0,1.8579137E-1,0E0,0E0,0E0,0E0,9.2848206E-1,5.502434E-1,2.551403E-1,1.1997223E-1,1.5557289E-1,8.553383E-2,0E0,0E0,0E0,0E0,4.3382645E-2,0E0,0E0,0E0,0E0,0E0,0E0,0E0,1.4845756E-2,0E0,0E0,3.171245E-2,1.7442465E-2,1.8713586E-2,9.7572803E-4,1.7117456E-2,7.2647315E-3,1.1440277E-2,4.688978E-3,0E0,6.3905716E-2,1.15644455E-1,4.2988777E-2,4.38509E-2,4.611975E-2,0E0,8.433145E-2,0E0,2.6515558E-2,0E0,2.4649989E-2,1.7740399E-2,1.6221523E-2,0E0,4.945209E-1,2.0089409E-1,1.6351834E-1,2.7619824E-2,0E0,5.3982228E-2,1.689887E-2,2.4333191E-1,0E0,8.688569E-4,4.783681E-2,6.0483456E-2,2.5904083E-1,3.4600067E-1,9.154415E-2,4.8892975E-2,2.353986E-2,1.6298676E-1,0E0,1.595366E-2,0E0,0E0,0E0,0E0,0E0,0E0,0E0,0E0,0E0,0E0,0E0,0E0,0E0,0E0,0E0,0E0,0E0,0E0,0E0,0E0,0E0,0E0,0E0,0E0,0E0,0E0,0E0,0E0,0E0,0E0,0E0,0E0,0E0,0E0,0E0,0E0,0E0,0E0,0E0,0E0,0E0,0E0,0E0,0E0,0E0,0E0,0E0,0E0,0E0,0E0,0E0,0E0,0E0,0E0,0E0,0E0,0E0,0E0,0E0,0E0,0E0,0E0,0E0,0E0,0E0,0E0,0E0,0E0,0E0,0E0,0E0,0E0,0E0,0E0,0E0,0E0,0E0,0E0],"parents":[2147483647,0,0,1,1,2,2,3,3,4,4,5,5,6,6,7,7,8,8,9,9,10,10,11,11,12,12,13,13,14,14,16,16,17,17,18,18,19,19,20,20,21,21,22,22,23,23,24,24,25,25,26,26,27,27,28,28,29,29,31,31,32,32,33,33,34,34,35,35,37,37,38,38,39,39,40,40,41,41,43,43,44,44,45,45,46,46,47,47,48,48,49,49,50,50,51,51,52,52,55,55,57,57,58,58,59,59,61,61,63,63,67,67,70,70,71,71,72,72,73,73,74,74,75,75,77,77,78,78,79,79,80,80,81,81,82,82,83,83,84,84,85,85,86,86,87,87,88,88,90,90,95,95,96,96,97,97,98,98,99,99,100,100,105,105,113,113,116,116,117,117,118,118,119,119,120,120,121,121,122,122,123,123,125,125,126,126,127,127,128,128,129,129,131,131,133,133,135,135,136,136,137,137,139,139,140,140,141,141,142,142,144,144,145,145,146,146,148,148,149,149,150,150,151,151,152,152,153,153,154,154,155,155,156,156,158,158],"right_children":[2,4,6,8,10,12,14,16,18,20,22,24,26,28,30,-1,32,34,36,38,40,42,44,46,48,50,52,54,56,58,-1,60,62,64,66,68,-1,70,72,74,76,78,-1,80,82,84,86,88,90,92,94,96,98,-1,-1,100,-1,102,104,106,-1,108,-1,110,-1,-1,-1,112,-1,-1,114,116,118,120,122,124,-1,126,128,130,132,134,136,138,140,142,144,146,148,-1,150,-1,-1,-1,-1,152,154,156,158,160,162,-1,-1,-1,-1,164,-1,-1,-1,-1,-1,-1,-1,166,-1,-1,168,170,172,174,176,178,180,182,-1,184,186,188,190,192,-1,194,-1,196,-1,198,200,202,-1,204,206,208,210,-1,212,214,216,-1,218,220,222,224,226,228,230,232,234,-1,236,-1,-1,-1,-1,-1,-1,-1,-1,-1,-1,-1,-1,-1,-1,-1,-1,-1,-1,-1,-1,-1,-1,-1,-1,-1,-1,-1,-1,-1,-1,-1,-1,-1,-1,-1,-1,-1,-1,-1,-1,-1,-1,-1,-1,-1,-1,-1,-1,-1,-1,-1,-1,-1,-1,-1,-1,-1,-1,-1,-1,-1,-1,-1,-1,-1,-1,-1,-1,-1,-1,-1,-1,-1,-1,-1,-1,-1,-1],"split_conditions":[-2.3913322E-1,-7.1371144E-1,9.3405515E-1,-9.2753917E-1,-1.9371147E-1,2.604877E-1,1.4555278E0,-1.0686847E0,-1.9371147E-1,2.5569439E-2,-4.3036664E-1,2.9430548E-2,-6.6605514E-1,4.2898703E-1,2.447776E0,-9.684438E-2,-1.9371147E-1,-5.6102335E-2,4.2351806E-1,-5.379138E-1,4.573761E-1,4.5450586E-1,-3.1450707E-1,4.573761E-1,4.5450586E-1,1.640617E-1,4.5450586E-1,4.5450586E-1,1.1214942E0,4.5450586E-1,1.1831563E-1,5.0072217E-1,3.5220716E-2,-8.048631E-1,-8.1589043E-1,4.5450586E-1,-7.8256615E-2,-6.8413323E-1,-4.923762E-1,-4.923762E-1,-3.1450707E-1,1.7063852E-1,-4.898588E-2,1.5869616E-2,7.3656864E-2,-1.9371147E-1,1.8916551E0,1.5970964E0,1.3287951E0,-2.319608E-2,3.5071373E-1,3.7411702E-1,6.051524E-1,8.927592E-2,6.6712044E-2,1.5763837E0,7.144845E-2,1.7662166E0,1.9683393E0,1.5869616E-2,-8.544583E-2,4.5450586E-1,-9.286585E-2,-1.0679597E0,-1.6770184E-2,-5.8510788E-2,-4.5569554E-2,-7.7713156E-1,-7.834219E-2,-1.8704558E-2,-9.829989E-1,-5.3086746E-1,-1.0652744E0,-5.800652E-1,7.483185E-2,-1.1872953E0,1.7221927E-3,-5.939519E-1,1.5970964E0,4.50959E-1,4.573761E-1,4.50959E-1,1.3707921E-1,4.2898703E-1,4.5450586E-1,1.396107E0,-2.2733654E-1,-9.8798764E-1,6.1152957E-2,-1.9202026E-2,1.5567671E-1,1.0290716E-1,8.107976E-2,2.1034924E-2,6.125688E-2,5.264616E-1,5.264616E-1,1.3287951E0,1.5675983E0,-1.301413E-1,4.774412E-1,1.0728716E-1,7.859729E-2,8.041466E-2,3.294573E-2,-1.1694005E0,-6.8166114E-2,-7.679703E-2,-9.863602E-2,-4.3291338E-2,-9.327436E-3,-6.510049E-2,-4.4340562E-2,-6.604442E-1,-1.3317816E-2,1.4750815E-2,-2.4656155E0,-1.1251593E0,-1.4084705E-2,-1.2030135E0,-5.676909E-1,3.6722902E-2,-1.3062768E0,-4.1061327E-1,-9.430965E-3,-6.3961875E-1,1.7983701E-2,-6.316047E-1,-5.5448342E-2,-5.5448342E-2,-2.6565408E-2,1.4462113E-1,-3.5315916E-2,1.7220092E-1,-1.1904701E-2,-2.524832E-1,-5.5448342E-2,-1.6582356E-1,5.302906E-3,-1.7990601E-1,-9.829989E-1,-7.2713286E-2,-1.4123394E-1,-3.8414598E-2,-7.2713286E-2,-2.5331097E0,1.3348515E-1,2.6620626E-3,2.0328138E0,-1.4084705E-2,8.2790434E-2,-1.1239822E-1,1.7983701E-2,5.0931937E-1,1.5675983E0,4.2825E-1,1.3649915E-1,4.6976116E-2,1.3287951E0,7.8482395E-3,5.719312E-2,-2.5305033E-3,2.8961435E-2,-5.9445478E-2,-3.6562424E-2,-6.6154636E-3,1.1908312E-3,1.1066914E-2,-1.3431004E-3,1.3779086E-2,2.8147876E-2,5.79532E-4,1.2732255E-2,-1.6820135E-2,-8.090818E-3,-3.7245752E-4,-1.0377175E-2,2.1107197E-4,6.5085413E-3,-9.265149E-3,-1.3055134E-3,-2.4613287E-2,-9.694259E-3,-3.6888797E-2,-2.8855199E-2,-2.8849786E-2,-2.058678E-2,-4.465029E-2,-3.134774E-2,-1.1498046E-2,-5.00136E-2,7.2241067E-3,-9.920855E-3,-8.825931E-3,-2.8512765E-2,-3.1231132E-3,4.943724E-3,-9.5411725E-3,1.9120694E-3,-1.1257887E-3,-1.617208E-2,2.4272015E-2,3.6055956E-2,3.523765E-3,1.3351728E-2,3.224746E-3,-8.998643E-3,-2.1242069E-3,1.0177554E-2,-1.9555133E-2,-7.590764E-3,-1.3642174E-2,6.406188E-4,1.1941862E-2,4.5894757E-2,1.9371694E-2,3.2505017E-2,1.7395774E-2,7.050165E-3,1.2962262E-2,2.5791063E-3,2.4912646E-2,1.4639798E-2,3.68251E-2,5.704927E-2,5.6158077E-2,7.295783E-2,3.983901E-2,1.9003265E-2,5.7031225E-2,4.652741E-2,-3.2442254E-3,1.0982513E-2,3.6288645E-2,2.77919E-2,7.970333E-3,3.3333443E-2],"split_indices":[0,0,0,0,2,0,0,0,2,1,0,0,2,1,0,0,2,1,1,0,1,2,0,1,2,1,2,2,0,2,0,1,1,0,0,2,0,0,0,0,0,1,0,1,1,2,1,1,2,1,0,1,0,0,0,2,0,1,1,1,0,2,0,2,0,0,0,0,0,0,1,0,1,0,1,2,0,0,1,2,1,2,1,1,2,2,0,2,0,0,0,0,0,0,0,0,0,2,1,2,1,0,0,0,0,2,0,0,0,0,0,0,0,0,0,0,2,1,1,2,0,1,2,0,0,0,2,0,2,2,0,2,0,2,0,0,2,0,0,0,1,0,0,0,0,2,0,0,1,1,1,2,2,0,1,0,1,0,2,0,0,0,0,0,0,0,0,0,0,0,0,0,0,0,0,0,0,0,0,0,0,0,0,0,0,0,0,0,0,0,0,0,0,0,0,0,0,0,0,0,0,0,0,0,0,0,0,0,0,0,0,0,0,0,0,0,0,0,0,0,0,0,0,0,0,0,0,0,0,0,0,0,0,0,0,0,0],"split_type":[0,0,0,0,0,0,0,0,0,0,0,0,0,0,0,0,0,0,0,0,0,0,0,0,0,0,0,0,0,0,0,0,0,0,0,0,0,0,0,0,0,0,0,0,0,0,0,0,0,0,0,0,0,0,0,0,0,0,0,0,0,0,0,0,0,0,0,0,0,0,0,0,0,0,0,0,0,0,0,0,0,0,0,0,0,0,0,0,0,0,0,0,0,0,0,0,0,0,0,0,0,0,0,0,0,0,0,0,0,0,0,0,0,0,0,0,0,0,0,0,0,0,0,0,0,0,0,0,0,0,0,0,0,0,0,0,0,0,0,0,0,0,0,0,0,0,0,0,0,0,0,0,0,0,0,0,0,0,0,0,0,0,0,0,0,0,0,0,0,0,0,0,0,0,0,0,0,0,0,0,0,0,0,0,0,0,0,0,0,0,0,0,0,0,0,0,0,0,0,0,0,0,0,0,0,0,0,0,0,0,0,0,0,0,0,0,0,0,0,0,0,0,0,0,0,0,0,0,0,0,0,0,0,0,0,0,0],"sum_hessian":[3.991E3,1.885E3,2.106E3,1.278E3,6.07E2,1.497E3,6.09E2,8.58E2,4.2E2,1.32E2,4.75E2,6.24E2,8.73E2,1.87E2,4.22E2,2.03E2,6.55E2,1.31E2,2.89E2,4.6E1,8.6E1,3.94E2,8.1E1,4.06E2,2.18E2,9.3E1,7.8E2,1.09E2,7.8E1,2.8E2,1.42E2,2.05E2,4.5E2,4E1,9.1E1,2.36E2,5.3E1,2.2E1,2.4E1,5.7E1,2.9E1,3.36E2,5.8E1,4.1E1,4E1,2.99E2,1.07E2,1.56E2,6.2E1,7.7E1,1.6E1,5.26E2,2.54E2,8.9E1,2E1,4.2E1,3.6E1,2.23E2,5.7E1,1.78E2,2.7E1,2.37E2,2.13E2,3.7E1,3E0,6.4E1,2.7E1,2.08E2,2.8E1,3E0,1.9E1,9E0,1.5E1,4.3E1,1.4E1,2.8E1,1E0,2.64E2,7.2E1,2.4E1,1.7E1,1.7E1,2.3E1,3E1,2.69E2,8.6E1,2.1E1,1.37E2,1.9E1,2E0,6E1,3E1,4.7E1,2E0,1.4E1,3.43E2,1.83E2,1.7E2,8.4E1,3.9E1,3E0,1.9E2,3.3E1,5.5E1,2E0,6.8E1,1.1E2,2.15E2,2.2E1,3.6E1,1E0,1.96E2,1.2E1,1.4E1,5E0,1E0,8E0,1E1,5E0,2.6E1,1.7E1,7E0,7E0,2.6E1,2E0,1.11E2,1.53E2,4.6E1,2.6E1,2E1,4E0,1.1E1,6E0,1.5E1,2E0,1E1,1.3E1,2.9E1,1E0,2.15E2,5.4E1,7.5E1,1.1E1,1E0,2E1,1.5E1,1.22E2,1E0,1.8E1,1.9E1,4.1E1,2.08E2,1.35E2,7E1,1.13E2,3E0,1.67E2,6.6E1,1.8E1,1E0,3.8E1,1E0,2E0,6.1E1,7E0,2E0,1.2E1,2E0,6E0,7E0,3E0,2E0,3E0,2.3E1,3E0,2E0,1.5E1,3E0,4E0,3E0,4E0,2.4E1,2E0,3.8E1,7.3E1,2.9E1,1.24E2,1.2E1,3.4E1,1E0,2.5E1,1E0,1.9E1,5E0,6E0,6E0,9E0,8E0,2E0,1E0,1.2E1,1.8E1,1.1E1,8.6E1,1.29E2,2.2E1,3.2E1,6.3E1,1.2E1,5E0,6E0,1.7E1,3E0,1E0,1.4E1,2.3E1,9.9E1,1.6E1,2E0,1.1E1,8E0,2.6E1,1.5E1,1.4E1,1.94E2,4E1,9.5E1,6.5E1,5E0,5.3E1,6E1,2E0,1E0,1.1E2,5.7E1,1E0,1.7E1],"tree_param":{"num_deleted":"0","num_feature":"3","num_nodes":"237","size_leaf_vector":"1"}},{"base_weights":[5.2545736E-5,-5.372016E-1,4.966566E-1,-6.980888E-1,-2.1483912E-1,3.2224807E-1,8.358495E-1,-8.099218E-1,-6.2550604E-1,-2.5601172E-1,-6.73133E-2,1.23207554E-1,4.7315675E-1,6.4049715E-1,9.420116E-1,-7.2435486E-1,-8.61803E-1,-5.241831E-1,-6.6956776E-1,-1.0913994E-1,-2.9477727E-1,6.9904685E-2,-1.082388E-1,5.5700608E-2,2.3823905E-1,7.6651686E-1,4.3474317E-1,7.4135166E-1,5.3455937E-1,8.610331E-1,1.0361707E-1,-8.813264E-2,-6.531324E-1,-1.0598295E-1,-8.3724487E-1,-5.92903E-1,-4.499496E-1,-7.218089E-1,-6.1180115E-1,1.6647557E-2,-1.4419729E-1,-2.6817966E-1,-4.4170313E-2,1.4395273E-1,2.0061599E-4,-7.593517E-2,-2.2572479E-1,8.0797605E-2,-5.8793165E-2,2.7316043E-1,1.474312E-1,9.243599E-2,6.748201E-1,4.9154377E-1,3.200026E-1,7.871821E-2,5.3480476E-1,5.476536E-1,2.7296203E-1,9.261608E-1,7.0554423E-1,-6.2369056E-2,-8.1476144E-2,-7.924219E-2,-9.4536334E-2,-4.7664964E-1,-6.546531E-2,-3.6271214E-1,-4.8160368E-1,-6.540098E-2,-7.753041E-2,-5.914772E-1,-7.3552914E-2,-1.3572235E-1,5.3907655E-2,-1.0732489E-1,-2.1669838E-1,-2.2678189E-1,-3.4308922E-1,7.353885E-2,1.7884716E-2,-3.9671276E-2,8.655628E-2,-1.441851E-1,-2.7224926E-2,-1.8123381E-1,-3.9174844E-2,1.13906E-1,-1.8290037E-2,3.2461297E-2,-1.00257106E-1,2.8955984E-1,1.463465E-1,-1.7921878E-2,1.6107905E-1,1.9632595E-2,6.87935E-2,5.329518E-1,4.0037036E-1,3.68361E-2,2.8252757E-1,1.4871264E-2,5.442999E-2,5.951963E-2,4.7495064E-1,-2.4039985E-3,3.188252E-2,9.661793E-2,7.34139E-2,7.373818E-2,5.3608727E-2,-5.0240654E-2,-1.649619E-1,-2.6923484E-1,-4.0995973E-1,-4.9604002E-2,-3.2372724E-2,-5.9563737E-2,-3.3619914E-2,-2.4810552E-3,-1.5724767E-2,2.8390232E-2,2.6936937E-2,-1.4756711E-1,-6.0375195E-2,-2.2060214E-2,-5.76005E-3,-2.7274674E-1,-1.8966661E-1,-4.3742603E-1,-2.963386E-1,1.0081613E-2,2.7876854E-2,3.1589508E-2,-8.815795E-2,1.636076E-3,9.732323E-3,-9.937602E-2,-2.8859485E-2,-1.8562148E-3,-7.118867E-2,-2.8462037E-2,-1.375984E-1,2.7674946E-1,9.190269E-2,-3.8721606E-2,8.684639E-2,-2.2082329E-3,6.7331575E-2,-2.9858638E-2,-8.945459E-2,4.0428627E-1,2.7228191E-1,2.5289536E-3,1.5138689E-1,8.121858E-2,1.9527262E-1,4.2743858E-2,5.5721515E-1,4.3858352E-1,3.386797E-1,2.064163E-1,3.1352913E-1,7.455826E-3,4.8133954E-2,-9.988626E-4,-2.649479E-2,-2.783542E-2,-7.0781945E-3,-4.2909797E-2,-1.457181E-2,-2.598858E-3,5.548727E-3,-1.5287607E-2,-7.483995E-3,2.9318128E-3,-8.616965E-3,-2.8153837E-2,-1.9495891E-2,-2.0758353E-2,-1.5438357E-2,-8.401918E-3,-4.4490904E-2,-2.601415E-2,-3.7788156E-2,-1.1345148E-3,4.4732573E-3,-1.9629716E-3,4.57593E-3,-1.03293145E-2,8.894205E-4,1.5301704E-4,-1.0690723E-2,1.6762669E-3,-9.153811E-3,-8.904294E-3,-1.7663956E-3,-1.0694981E-3,-1.4534563E-2,3.107946E-2,1.7412646E-2,5.5808024E-3,1.4536411E-2,-4.8649684E-3,1.8598462E-2,2.2547722E-3,9.648726E-3,-1.3613658E-3,6.162572E-3,4.3106736E-3,9.894836E-3,-3.2489914E-3,-1.3202396E-2,1.1344767E-2,4.1611236E-2,-1.1998296E-2,2.7648067E-2,1.7512899E-2,1.0554801E-2,1.2189302E-2,2.8354835E-3,2.2346443E-2,1.2962977E-2,5.6078136E-2,7.4293935E-3,3.4782626E-2,4.653465E-2,2.1289838E-2,3.5916824E-2,-3.0279318E-3,2.1900807E-2,3.2785907E-2,2.2933709E-2],"categories":[],"categories_nodes":[],"categories_segments":[],"categories_sizes":[],"default_left":[0,0,0,0,0,0,0,0,0,0,0,0,0,0,0,0,0,0,0,0,0,0,0,0,0,0,0,0,0,0,0,0,0,0,0,0,0,0,0,0,0,0,0,0,0,0,0,0,0,0,0,0,0,0,0,0,0,0,0,0,0,0,0,0,0,0,0,0,0,0,0,0,0,0,0,0,0,0,0,0,0,0,0,0,0,0,0,0,0,0,0,0,0,0,0,0,0,0,0,0,0,0,0,0,0,0,0,0,0,0,0,0,0,0,0,0,0,0,0,0,0,0,0,0,0,0,0,0,0,0,0,0,0,0,0,0,0,0,0,0,0,0,0,0,0,0,0,0,0,0,0,0,0,0,0,0,0,0,0,0,0,0,0,0,0,0,0,0,0,0,0,0,0,0,0,0,0,0,0,0,0,0,0,0,0,0,0,0,0,0,0,0,0,0,0,0,0,0,0,0,0,0,0,0,0,0,0,0,0,0,0,0,0,0,0,0,0,0,0,0,0,0,0,0,0,0,0,0,0,0,0,0,0],"id":5,"left_children":[1,3,5,7,9,11,13,15,17,19,21,23,25,27,29,31,33,35,37,39,41,43,45,47,49,51,53,55,57,59,-1,-1,61,-1,63,65,67,69,71,73,75,77,-1,79,81,83,85,87,89,91,93,-1,95,97,99,-1,101,103,105,107,109,-1,-1,-1,-1,111,-1,113,115,-1,-1,117,-1,119,121,123,125,127,129,131,-1,133,135,137,139,141,-1,143,145,147,149,151,153,-1,155,-1,-1,157,159,-1,161,-1,-1,-1,163,-1,-1,-1,-1,-1,-1,-1,165,167,169,-1,-1,-1,-1,-1,-1,171,-1,173,175,-1,-1,177,179,181,183,-1,185,187,189,-1,-1,191,-1,193,195,-1,197,199,201,203,205,207,209,-1,211,213,215,-1,217,219,221,-1,223,225,227,229,231,-1,-1,-1,-1,-1,-1,-1,-1,-1,-1,-1,-1,-1,-1,-1,-1,-1,-1,-1,-1,-1,-1,-1,-1,-1,-1,-1,-1,-1,-1,-1,-1,-1,-1,-1,-1,-1,-1,-1,-1,-1,-1,-1,-1,-1,-1,-1,-1,-1,-1,-1,-1,-1,-1,-1,-1,-1,-1,-1,-1,-1,-1,-1,-1,-1,-1,-1,-1,-1,-1],"loss_changes":[1.0653427E3,9.9325195E1,1.22483795E2,9.875183E0,3.8701382E0,4.115239E1,1.3996887E1,1.595398E0,3.1313171E0,2.8146133E0,7.993823E-1,4.591627E0,8.456604E0,2.2854614E0,2.569519E0,1.604454E0,6.008148E-1,9.6263885E-1,1.1879883E0,4.6983683E-1,1.4251556E0,1.7029896E-1,3.9653885E-1,1.0822941E0,6.542063E-1,6.6438675E-1,4.3526917E0,7.7173615E-1,2.8211594E-1,1.8782196E0,0E0,0E0,1.4853668E-1,0E0,5.9324646E-1,5.637512E-1,1.5668488E-1,5.0123596E-1,2.2631073E-1,1.435721E-1,1.9862592E-1,9.6726036E-1,0E0,2.6160657E-2,6.541074E-2,2.8530347E-1,9.889281E-2,1.0125182E0,2.6055077E-1,2.8413296E-1,3.0972672E-1,0E0,2.4146271E-1,1.5270386E0,3.163662E-1,0E0,1.4371872E-2,1.2863159E-1,1.166361E-1,6.201019E-1,2.551651E-2,0E0,0E0,0E0,0E0,2.864151E-1,0E0,4.8621655E-2,3.3147812E-2,0E0,0E0,4.5066833E-2,0E0,8.035652E-3,1.023131E-1,9.878409E-2,4.062295E-3,3.2358932E-1,3.9079E-1,5.9083067E-3,0E0,4.7702447E-2,2.942469E-3,2.0427185E-1,5.7863645E-2,5.1063E-2,0E0,8.022611E-1,1.7091478E-1,2.6745284E-2,7.398546E-2,1.634674E-1,8.374959E-3,0E0,1.5071392E-1,0E0,0E0,5.656967E-1,2.0035553E-1,0E0,2.5382423E-1,0E0,0E0,0E0,9.713268E-2,0E0,0E0,0E0,0E0,0E0,0E0,0E0,7.482931E-2,7.443905E-3,4.872918E-2,0E0,0E0,0E0,0E0,0E0,0E0,2.943862E-2,0E0,1.4197826E-4,6.730687E-2,0E0,0E0,1.0764599E-2,4.697275E-2,6.046772E-2,1.4373016E-1,0E0,3.1519572E-3,5.252836E-3,1.2669943E-2,0E0,0E0,2.2202015E-2,0E0,5.8306832E-2,1.6584389E-2,0E0,1.4175922E-2,4.0215492E-2,3.8747025E-1,1.5628758E-1,5.883068E-3,9.575591E-3,4.159685E-3,0E0,1.0725823E-1,7.824659E-3,2.3575687E-1,0E0,2.1933913E-3,3.95478E-2,4.8757195E-2,0E0,3.9232635E-1,5.1885605E-2,8.073521E-2,1.3180876E-1,3.8217545E-2,0E0,0E0,0E0,0E0,0E0,0E0,0E0,0E0,0E0,0E0,0E0,0E0,0E0,0E0,0E0,0E0,0E0,0E0,0E0,0E0,0E0,0E0,0E0,0E0,0E0,0E0,0E0,0E0,0E0,0E0,0E0,0E0,0E0,0E0,0E0,0E0,0E0,0E0,0E0,0E0,0E0,0E0,0E0,0E0,0E0,0E0,0E0,0E0,0E0,0E0,0E0,0E0,0E0,0E0,0E0,0E0,0E0,0E0,0E0,0E0,0E0,0E0,0E0,0E0,0E0,0E0,0E0,0E0,0E0,0E0],"parents":[2147483647,0,0,1,1,2,2,3,3,4,4,5,5,6,6,7,7,8,8,9,9,10,10,11,11,12,12,13,13,14,14,15,15,16,16,17,17,18,18,19,19,20,20,21,21,22,22,23,23,24,24,25,25,26,26,27,27,28,28,29,29,32,32,34,34,35,35,36,36,37,37,38,38,39,39,40,40,41,41,43,43,44,44,45,45,46,46,47,47,48,48,49,49,50,50,52,52,53,53,54,54,56,56,57,57,58,58,59,59,60,60,65,65,67,67,68,68,71,71,73,73,74,74,75,75,76,76,77,77,78,78,79,79,81,81,82,82,83,83,84,84,85,85,87,87,88,88,89,89,90,90,91,91,92,92,94,94,97,97,98,98,100,100,104,104,112,112,113,113,114,114,121,121,123,123,124,124,127,127,128,128,129,129,130,130,132,132,133,133,134,134,137,137,139,139,140,140,142,142,143,143,144,144,145,145,146,146,147,147,148,148,150,150,151,151,152,152,154,154,155,155,156,156,158,158,159,159,160,160,161,161,162,162],"right_children":[2,4,6,8,10,12,14,16,18,20,22,24,26,28,30,32,34,36,38,40,42,44,46,48,50,52,54,56,58,60,-1,-1,62,-1,64,66,68,70,72,74,76,78,-1,80,82,84,86,88,90,92,94,-1,96,98,100,-1,102,104,106,108,110,-1,-1,-1,-1,112,-1,114,116,-1,-1,118,-1,120,122,124,126,128,130,132,-1,134,136,138,140,142,-1,144,146,148,150,152,154,-1,156,-1,-1,158,160,-1,162,-1,-1,-1,164,-1,-1,-1,-1,-1,-1,-1,166,168,170,-1,-1,-1,-1,-1,-1,172,-1,174,176,-1,-1,178,180,182,184,-1,186,188,190,-1,-1,192,-1,194,196,-1,198,200,202,204,206,208,210,-1,212,214,216,-1,218,220,222,-1,224,226,228,230,232,-1,-1,-1,-1,-1,-1,-1,-1,-1,-1,-1,-1,-1,-1,-1,-1,-1,-1,-1,-1,-1,-1,-1,-1,-1,-1,-1,-1,-1,-1,-1,-1,-1,-1,-1,-1,-1,-1,-1,-1,-1,-1,-1,-1,-1,-1,-1,-1,-1,-1,-1,-1,-1,-1,-1,-1,-1,-1,-1,-1,-1,-1,-1,-1,-1,-1,-1,-1,-1,-1],"split_conditions":[-2.2733654E-1,-7.1371144E-1,8.5089576E-1,-1.0296891E0,-4.3036664E-1,2.604877E-1,1.4052106E0,-1.9371147E-1,-1.9371147E-1,-1.9371147E-1,-8.264108E-1,2.9430548E-2,-6.6605514E-1,3.7411702E-1,1.8647128E0,-1.1379702E0,-1.1096971E0,-8.9854145E-1,-9.06022E-1,-9.829989E-1,4.5450586E-1,2.5569439E-2,5.0072217E-1,4.5450586E-1,4.5450586E-1,-2.319608E-2,4.5450586E-1,4.5450586E-1,1.5763837E0,5.922649E-1,1.0361707E-1,-8.813264E-2,5.0072217E-1,-1.0598295E-1,3.7411702E-1,1.5869616E-2,-5.6102335E-2,-2.319608E-2,4.5450586E-1,-6.604442E-1,4.2898703E-1,6.2271286E-2,-4.4170313E-2,-3.5575172E-1,-2.666673E-1,-3.1450707E-1,1.8916551E0,4.774412E-1,-9.829989E-1,1.5970964E0,1.3287951E0,9.243599E-2,3.5071373E-1,3.7411702E-1,-1.4084705E-2,7.871821E-2,8.627133E-1,1.6431911E0,4.774412E-1,4.5450586E-1,4.5450586E-1,-6.2369056E-2,-8.1476144E-2,-7.924219E-2,-9.4536334E-2,-1.1694005E0,-6.546531E-2,-1.5098801E0,-1.1872953E0,-6.540098E-2,-7.753041E-2,-7.491385E-1,-7.3552914E-2,-1.2627741E0,-4.923762E-1,-5.800652E-1,-9.2906326E-1,-5.939519E-1,-6.20397E-1,-1.0652744E0,1.7884716E-2,7.483185E-2,-2.3913322E-1,4.5450586E-1,6.2271286E-2,-3.1450707E-1,-3.9174844E-2,-2.3021013E-1,-7.2713286E-2,-1.2570757E0,1.3287951E0,-9.8798764E-1,6.1152957E-2,-1.7921878E-2,1.5567671E-1,1.9632595E-2,6.87935E-2,4.0746927E-1,1.5970964E0,3.68361E-2,4.4087607E-1,1.4871264E-2,5.442999E-2,5.951963E-2,-1.301413E-1,-2.4039985E-3,3.188252E-2,9.661793E-2,7.34139E-2,7.373818E-2,5.3608727E-2,-5.0240654E-2,-9.829989E-1,-7.491385E-1,-1.1872953E0,-4.9604002E-2,-3.2372724E-2,-5.9563737E-2,-3.3619914E-2,-2.4810552E-3,-1.5724767E-2,-1.2570757E0,2.6936937E-2,-1.2030135E0,-1.5068035E0,-2.2060214E-2,-5.76005E-3,2.613387E-1,-5.157286E-1,-5.1395543E-2,5.922649E-1,1.0081613E-2,-9.529197E-2,3.5220716E-2,-1.2030135E0,1.636076E-3,9.732323E-3,-5.5448342E-2,-2.8859485E-2,4.50959E-1,2.9407427E-1,-2.8462037E-2,-5.5448342E-2,1.3707921E-1,-1.4854431E-1,4.50959E-1,4.8679104E-1,-1.3619413E-2,-5.5929616E-2,-2.9858638E-2,1.475552E0,-2.5331097E0,-1.301413E-1,2.5289536E-3,1.7572508E0,-5.6102335E-2,1.0082577E-1,4.2743858E-2,8.394206E-1,4.3774074E-1,1.4631837E-2,1.3287951E0,1.7546192E0,7.455826E-3,4.8133954E-2,-9.988626E-4,-2.649479E-2,-2.783542E-2,-7.0781945E-3,-4.2909797E-2,-1.457181E-2,-2.598858E-3,5.548727E-3,-1.5287607E-2,-7.483995E-3,2.9318128E-3,-8.616965E-3,-2.8153837E-2,-1.9495891E-2,-2.0758353E-2,-1.5438357E-2,-8.401918E-3,-4.4490904E-2,-2.601415E-2,-3.7788156E-2,-1.1345148E-3,4.4732573E-3,-1.9629716E-3,4.57593E-3,-1.03293145E-2,8.894205E-4,1.5301704E-4,-1.0690723E-2,1.6762669E-3,-9.153811E-3,-8.904294E-3,-1.7663956E-3,-1.0694981E-3,-1.4534563E-2,3.107946E-2,1.7412646E-2,5.5808024E-3,1.4536411E-2,-4.8649684E-3,1.8598462E-2,2.2547722E-3,9.648726E-3,-1.3613658E-3,6.162572E-3,4.3106736E-3,9.894836E-3,-3.2489914E-3,-1.3202396E-2,1.1344767E-2,4.1611236E-2,-1.1998296E-2,2.7648067E-2,1.7512899E-2,1.0554801E-2,1.2189302E-2,2.8354835E-3,2.2346443E-2,1.2962977E-2,5.6078136E-2,7.4293935E-3,3.4782626E-2,4.653465E-2,2.1289838E-2,3.5916824E-2,-3.0279318E-3,2.1900807E-2,3.2785907E-2,2.2933709E-2],"split_indices":[0,0,0,0,0,0,0,2,2,2,2,0,2,1,0,0,0,0,0,1,2,1,1,2,2,1,2,2,2,1,0,0,1,0,1,1,1,1,2,0,1,1,0,0,0,0,1,1,1,1,2,0,0,1,1,0,0,1,1,2,2,0,0,0,0,2,0,2,2,0,0,0,0,1,0,0,2,0,0,1,0,1,0,2,1,0,0,2,0,1,2,2,0,0,0,0,0,0,1,0,0,0,0,0,2,0,0,0,0,0,0,0,1,0,2,0,0,0,0,0,0,1,0,2,2,0,0,2,0,2,1,0,1,1,2,0,0,2,0,2,2,0,2,1,0,2,1,0,0,0,2,2,2,0,1,1,1,0,0,0,2,2,1,0,0,0,0,0,0,0,0,0,0,0,0,0,0,0,0,0,0,0,0,0,0,0,0,0,0,0,0,0,0,0,0,0,0,0,0,0,0,0,0,0,0,0,0,0,0,0,0,0,0,0,0,0,0,0,0,0,0,0,0,0,0,0,0,0,0,0,0,0,0],"split_type":[0,0,0,0,0,0,0,0,0,0,0,0,0,0,0,0,0,0,0,0,0,0,0,0,0,0,0,0,0,0,0,0,0,0,0,0,0,0,0,0,0,0,0,0,0,0,0,0,0,0,0,0,0,0,0,0,0,0,0,0,0,0,0,0,0,0,0,0,0,0,0,0,0,0,0,0,0,0,0,0,0,0,0,0,0,0,0,0,0,0,0,0,0,0,0,0,0,0,0,0,0,0,0,0,0,0,0,0,0,0,0,0,0,0,0,0,0,0,0,0,0,0,0,0,0,0,0,0,0,0,0,0,0,0,0,0,0,0,0,0,0,0,0,0,0,0,0,0,0,0,0,0,0,0,0,0,0,0,0,0,0,0,0,0,0,0,0,0,0,0,0,0,0,0,0,0,0,0,0,0,0,0,0,0,0,0,0,0,0,0,0,0,0,0,0,0,0,0,0,0,0,0,0,0,0,0,0,0,0,0,0,0,0,0,0,0,0,0,0,0,0,0,0,0,0,0,0,0,0,0,0,0,0],"sum_hessian":[3.991E3,1.917E3,2.074E3,1.278E3,6.39E2,1.371E3,7.03E2,4.99E2,7.79E2,4.99E2,1.4E2,5.92E2,7.79E2,2.5E2,4.53E2,1.94E2,3.05E2,2.4E2,5.39E2,1.05E2,3.94E2,3.2E1,1.08E2,3.74E2,2.18E2,8.8E1,6.91E2,1.25E2,1.25E2,2.49E2,2.04E2,5.7E1,1.37E2,2.9E1,2.76E2,1.21E2,1.19E2,2.77E2,2.62E2,2.3E1,8.2E1,3.36E2,5.8E1,1.5E1,1.7E1,8.6E1,2.2E1,3.07E2,6.7E1,1.56E2,6.2E1,2.9E1,5.9E1,4.6E2,2.31E2,1E2,2.5E1,1.18E2,7E0,1.72E2,7.7E1,1.2E2,1.7E1,2.01E2,7.5E1,4.5E1,7.6E1,3.5E1,8.4E1,1.28E2,1.49E2,2.3E2,3.2E1,4E0,1.9E1,5.6E1,2.6E1,2.19E2,1.17E2,6E0,9E0,1.2E1,5E0,3.5E1,5.1E1,1.9E1,3E0,2.3E2,7.7E1,2.1E1,4.6E1,1.37E2,1.9E1,2E0,6E1,2E0,5.7E1,3.13E2,1.47E2,9.7E1,1.34E2,1E0,2.4E1,6.7E1,5.1E1,1E0,6E0,1.39E2,3.3E1,6.2E1,1.5E1,4.1E1,4E0,1.4E1,2.1E1,7.5E1,9E0,2.25E2,5E0,1E0,3E0,1.8E1,1E0,2.9E1,2.7E1,2.5E1,1E0,9.5E1,1.24E2,3.6E1,8.1E1,3E0,3E0,5E0,7E0,1E0,4E0,2.8E1,7E0,3.3E1,1.8E1,4E0,1.5E1,2.6E1,2.04E2,6.5E1,1.2E1,1.1E1,1E1,1E0,4.5E1,1.5E1,1.22E2,1E0,1.8E1,1.9E1,4.1E1,6.2E1,2.51E2,8.7E1,6E1,4.1E1,9.3E1,1E0,5E1,2E0,2E0,1.3E1,1E0,1.9E1,2E0,6E0,1.2E1,2.6E1,3E0,6E0,2.1E1,8.3E1,1.2E1,7.9E1,4.5E1,1E0,3.5E1,5.9E1,2.2E1,1E0,2E0,1E0,4E0,6E0,1E0,2E0,2.6E1,2.8E1,5E0,1.3E1,5E0,1E0,1.4E1,1.8E1,8E0,1.23E2,8.1E1,6.3E1,2E0,2E0,1E1,1E1,1E0,7E0,3E0,2E1,2.5E1,1E0,1.4E1,1E0,1.21E2,1E1,8E0,1E1,9E0,2.7E1,1.4E1,2.49E2,2E0,2.3E1,6.4E1,1E1,5E1,2E0,3.9E1,7.7E1,1.6E1],"tree_param":{"num_deleted":"0","num_feature":"3","num_nodes":"233","size_leaf_vector":"1"}},{"base_weights":[2.1281367E-5,-4.8428082E-1,4.476798E-1,-6.2650543E-1,-1.8834311E-1,3.1616166E-1,8.1357765E-1,-6.9475836E-1,-5.26995E-1,-5.296624E-2,-2.2455607E-1,1.19385615E-1,4.5148996E-1,7.298324E-1,9.2119914E-1,-6.1857915E-1,-7.3845136E-1,-4.2547506E-1,-5.677134E-1,5.2801643E-2,-1.0584926E-1,-2.5311023E-1,-6.4929314E-2,5.0309066E-2,2.225229E-1,5.066668E-1,3.103955E-1,8.1749827E-1,6.351956E-1,9.367102E-2,7.277413E-1,-7.546646E-2,-5.569695E-1,-9.3264714E-2,-7.196882E-1,-3.9656898E-1,-5.679349E-2,-5.913219E-1,-4.984973E-2,-1.5854394E-2,1.4758645E-1,-1.3161097E-1,1.1001026E-2,-2.2873233E-1,-3.8646007E-1,-2.651584E-2,-1.5801167E-1,7.302385E-2,-5.3315386E-2,2.509626E-1,1.5281746E-1,7.0746773E-1,4.7138256E-1,2.6792344E-1,3.754729E-1,8.541761E-1,6.4524007E-1,6.6659003E-1,4.821659E-1,9.391928E-3,7.534509E-2,-5.347522E-1,-7.5190294E-1,-6.444258E-1,-7.6970094E-1,-4.1523617E-2,-2.7723756E-1,-5.6800462E-2,-6.782734E-2,4.298752E-2,-5.299596E-2,1.20506614E-1,2.1900916E-1,-9.3262635E-2,-1.9349101E-1,-2.0051517E-2,8.953743E-3,-2.0012034E-1,-3.172631E-1,-4.2145777E-2,-3.1640526E-2,-1.1537606E-2,-7.9226375E-2,-1.3264544E-1,-3.453512E-2,1.0281237E-1,-1.6132208E-2,3.0079126E-2,-9.121675E-2,2.6546752E-1,1.3736147E-1,-1.6727082E-2,1.6387838E-1,7.4430114E-1,4.7908414E-2,5.3327316E-1,4.181492E-1,2.824215E-1,1.6991667E-1,4.047958E-1,3.075087E-1,7.2815174E-1,8.955753E-2,1.4774752E-2,6.565222E-2,5.52894E-1,7.059252E-2,5.0096173E-2,2.3475254E-1,-4.6789703E-1,-5.65952E-1,-7.7108525E-2,-2.1290183E-2,-6.2501955E-1,-8.079147E-2,-7.454861E-1,-9.094448E-2,-1.699462E-2,-3.0014446E-1,-5.4626465E-3,8.42731E-2,-8.640159E-3,7.0694513E-3,1.3524103E-1,1.1577129E-2,3.7401677E-3,2.6707778E-2,-1.03866726E-1,-3.4902096E-3,-1.9952044E-2,-7.8748865E-3,2.8866211E-2,-5.4233372E-2,-2.361814E-1,-1.5674707E-1,-2.8010708E-1,-3.8289833E-1,3.1109788E-2,-5.182913E-2,-9.399557E-2,-3.5869281E-3,-1.3640006E-1,-2.8776645E-3,2.4798441E-1,8.238282E-2,-3.4641173E-2,7.907732E-2,-1.5873114E-3,6.1889865E-2,-2.8365707E-2,-8.0866806E-2,2.0384488E-1,2.9120624E-2,2.4024963E-3,1.4161439E-1,8.141428E-2,1.9785476E-1,8.404725E-2,6.697889E-2,4.704543E-1,6.1194707E-2,4.4965905E-1,3.5444823E-1,4.9972218E-2,2.85495E-1,-3.1433345E-3,1.8049774E-1,1.6156895E-2,4.0987212E-2,5.932522E-3,3.132317E-2,3.285656E-1,7.6662995E-2,6.1733153E-2,4.029372E-1,-2.2837878E-3,3.2822862E-2,-4.8692066E-2,-6.0812356E-3,-5.959736E-2,-4.605359E-2,-6.600511E-2,-5.4720026E-2,-7.281904E-2,-9.425387E-2,-3.0915266E-2,-8.251071E-3,4.7216257E-3,-4.360616E-3,1.3013522E-2,2.8808236E-3,3.1923694E-3,-7.1027996E-3,8.736917E-3,1.6022379E-2,-1.077795E-3,2.8143644E-3,-1.188271E-2,-7.731806E-3,3.8661242E-3,-5.852874E-3,1.552105E-5,5.7525476E-3,-6.6421786E-3,1.5542746E-3,-2.6459748E-2,-1.8717034E-2,-1.3157501E-2,-1.9361798E-2,-3.5653926E-2,-2.5241742E-2,-9.033727E-3,-3.903881E-2,8.0698375E-3,1.903273E-3,-7.203529E-3,6.215894E-3,-1.0544004E-2,4.5022965E-4,-8.976698E-4,3.596306E-4,-5.104701E-3,-1.4304779E-2,2.813509E-2,1.5978966E-2,4.9298257E-3,1.3100499E-2,-4.3860534E-3,1.7358558E-2,1.4981723E-2,6.0697556E-3,-1.2376049E-3,5.85444E-3,3.9334954E-3,9.152723E-3,-2.9395467E-3,-1.1932954E-2,2.4248516E-2,7.818831E-3,1.50109185E-2,6.7984224E-3,1.2057976E-2,1.8441201E-3,2.118471E-2,1.1930146E-2,2.7484182E-2,4.8290826E-2,4.137459E-2,5.4078307E-2,2.819196E-2,3.965069E-2,-1.0957718E-3,8.591604E-3,8.63638E-3,2.8784012E-2,2.0166875E-3,1.871722E-2,6.92091E-3,3.7610244E-2,1.1361742E-2,4.7151376E-2],"categories":[],"categories_nodes":[],"categories_segments":[],"categories_sizes":[],"default_left":[0,0,0,0,0,0,0,0,0,0,0,0,0,0,0,0,0,0,0,0,0,0,0,0,0,0,0,0,0,0,0,0,0,0,0,0,0,0,0,0,0,0,0,0,0,0,0,0,0,0,0,0,0,0,0,0,0,0,0,0,0,0,0,0,0,0,0,0,0,0,0,0,0,0,0,0,0,0,0,0,0,0,0,0,0,0,0,0,0,0,0,0,0,0,0,0,0,0,0,0,0,0,0,0,0,0,0,0,0,0,0,0,0,0,0,0,0,0,0,0,0,0,0,0,0,0,0,0,0,0,0,0,0,0,0,0,0,0,0,0,0,0,0,0,0,0,0,0,0,0,0,0,0,0,0,0,0,0,0,0,0,0,0,0,0,0,0,0,0,0,0,0,0,0,0,0,0,0,0,0,0,0,0,0,0,0,0,0,0,0,0,0,0,0,0,0,0,0,0,0,0,0,0,0,0,0,0,0,0,0,0,0,0,0,0,0,0,0,0,0,0,0,0,0,0,0,0,0,0,0,0,0,0,0,0,0,0,0,0,0,0,0,0,0,0,0,0,0,0,0,0,0,0,0,0,0,0,0,0,0,0],"id":6,"left_children":[1,3,5,7,9,11,13,15,17,19,21,23,25,27,29,31,33,35,37,39,41,43,45,47,49,51,53,55,57,-1,59,-1,61,-1,63,65,-1,67,-1,69,71,73,75,77,79,81,83,85,87,89,91,93,95,97,99,101,103,105,107,-1,-1,109,111,113,115,-1,117,-1,-1,119,121,123,125,127,129,131,-1,133,135,-1,-1,137,139,141,-1,143,145,147,149,151,153,-1,155,157,-1,159,161,163,165,167,169,171,-1,-1,-1,173,-1,-1,175,177,179,-1,-1,181,-1,183,-1,-1,185,187,189,-1,191,193,195,-1,-1,197,199,-1,-1,201,203,205,207,209,211,213,215,217,219,221,-1,223,225,227,229,231,233,-1,235,237,-1,-1,239,241,243,-1,-1,245,-1,247,249,251,253,-1,255,-1,-1,-1,-1,257,-1,-1,259,-1,-1,-1,-1,-1,-1,-1,-1,-1,-1,-1,-1,-1,-1,-1,-1,-1,-1,-1,-1,-1,-1,-1,-1,-1,-1,-1,-1,-1,-1,-1,-1,-1,-1,-1,-1,-1,-1,-1,-1,-1,-1,-1,-1,-1,-1,-1,-1,-1,-1,-1,-1,-1,-1,-1,-1,-1,-1,-1,-1,-1,-1,-1,-1,-1,-1,-1,-1,-1,-1,-1,-1,-1,-1,-1,-1,-1,-1,-1,-1,-1,-1,-1,-1,-1,-1],"loss_changes":[8.656902E2,8.0609924E1,9.9596344E1,8.429321E0,3.047203E0,4.0635773E1,4.266632E0,2.089508E0,1.9534454E0,7.4950117E-1,2.2261047E0,4.434412E0,6.888275E0,2.0775146E0,2.6504517E-2,1.9691696E0,1.0814209E0,4.171753E-1,3.196411E-1,2.9517958E-1,2.6936144E-1,1.2671814E0,2.6755708E-1,8.865709E-1,4.5724773E-1,4.26474E0,6.097412E-1,4.5342255E-1,4.2325974E-1,0E0,2.87735E-1,0E0,4.6409607E-1,0E0,1.1714783E0,1.8114853E-1,0E0,1.7230225E-1,0E0,6.1286155E-2,1.0356128E-2,1.551832E-1,4.3254197E-2,8.3573914E-1,2.1109581E-2,4.2509004E-2,5.873686E-2,8.196534E-1,2.1767576E-1,2.5354385E-1,2.929474E-1,4.4256973E-1,1.6055374E0,1.779356E-1,7.281971E-2,1.5693665E-2,8.260822E-2,1.7320251E-1,2.1908283E-2,0E0,0E0,1.1690903E-1,2.1942139E-2,7.564545E-2,2.052002E-1,0E0,6.0367584E-4,0E0,0E0,2.2463582E-2,3.4721702E-2,2.4114504E-2,2.4929315E-2,4.4379383E-2,2.9673576E-3,2.3302795E-2,0E0,3.8684654E-1,1.00040436E-1,0E0,0E0,7.721885E-2,1.30684525E-2,4.2645633E-3,0E0,6.646702E-1,1.4019324E-1,2.2259558E-2,7.0673674E-2,1.8648338E-1,7.2019994E-3,0E0,1.8842554E-1,1.033783E-2,0E0,9.6248627E-1,4.4880295E-1,8.361149E-2,5.4675102E-2,1.5268326E-2,2.9709578E-2,3.1699753E-1,0E0,0E0,0E0,1.0877991E-1,0E0,0E0,1.03810236E-1,4.6601963E-1,1.0530472E-1,0E0,0E0,9.680939E-2,0E0,9.07135E-2,0E0,0E0,5.859494E-3,1.4115071E-2,1.1513449E-2,0E0,1.5854845E-2,2.7449727E-3,1.414368E-3,0E0,0E0,7.4940026E-3,1.6182516E-2,0E0,0E0,4.928088E-3,7.836055E-3,1.5380955E-1,9.146714E-2,3.2753468E-2,2.608776E-2,1.1639543E-2,5.7452638E-2,1.1747271E-2,1.4843089E-4,4.0459335E-3,0E0,3.744006E-2,3.2170486E-1,1.3431491E-1,7.8088343E-3,8.509491E-3,3.7529282E-3,0E0,8.755973E-2,2.1895552E-1,0E0,0E0,2.929896E-3,5.4502875E-2,3.0782819E-2,0E0,0E0,2.2052002E-1,0E0,4.2749405E-1,2.0851517E-1,7.511609E-3,3.8184166E-2,0E0,1.976806E-2,0E0,0E0,0E0,0E0,3.5615265E-2,0E0,0E0,2.2419572E-1,0E0,0E0,0E0,0E0,0E0,0E0,0E0,0E0,0E0,0E0,0E0,0E0,0E0,0E0,0E0,0E0,0E0,0E0,0E0,0E0,0E0,0E0,0E0,0E0,0E0,0E0,0E0,0E0,0E0,0E0,0E0,0E0,0E0,0E0,0E0,0E0,0E0,0E0,0E0,0E0,0E0,0E0,0E0,0E0,0E0,0E0,0E0,0E0,0E0,0E0,0E0,0E0,0E0,0E0,0E0,0E0,0E0,0E0,0E0,0E0,0E0,0E0,0E0,0E0,0E0,0E0,0E0,0E0,0E0,0E0,0E0,0E0,0E0,0E0,0E0,0E0,0E0,0E0,0E0,0E0,0E0,0E0,0E0,0E0,0E0,0E0],"parents":[2147483647,0,0,1,1,2,2,3,3,4,4,5,5,6,6,7,7,8,8,9,9,10,10,11,11,12,12,13,13,14,14,15,15,16,16,17,17,18,18,19,19,20,20,21,21,22,22,23,23,24,24,25,25,26,26,27,27,28,28,30,30,32,32,34,34,35,35,37,37,39,39,40,40,41,41,42,42,43,43,44,44,45,45,46,46,47,47,48,48,49,49,50,50,51,51,52,52,53,53,54,54,55,55,56,56,57,57,58,58,61,61,62,62,63,63,64,64,66,66,69,69,70,70,71,71,72,72,73,73,74,74,75,75,77,77,78,78,81,81,82,82,83,83,85,85,86,86,87,87,88,88,89,89,90,90,92,92,93,93,95,95,96,96,97,97,98,98,99,99,100,100,101,101,105,105,108,108,109,109,110,110,113,113,115,115,118,118,119,119,120,120,122,122,123,123,124,124,127,127,128,128,131,131,132,132,133,133,134,134,135,135,136,136,137,137,138,138,139,139,140,140,141,141,143,143,144,144,145,145,146,146,147,147,148,148,150,150,151,151,154,154,155,155,156,156,159,159,161,161,162,162,163,163,164,164,166,166,171,171,174,174],"right_children":[2,4,6,8,10,12,14,16,18,20,22,24,26,28,30,32,34,36,38,40,42,44,46,48,50,52,54,56,58,-1,60,-1,62,-1,64,66,-1,68,-1,70,72,74,76,78,80,82,84,86,88,90,92,94,96,98,100,102,104,106,108,-1,-1,110,112,114,116,-1,118,-1,-1,120,122,124,126,128,130,132,-1,134,136,-1,-1,138,140,142,-1,144,146,148,150,152,154,-1,156,158,-1,160,162,164,166,168,170,172,-1,-1,-1,174,-1,-1,176,178,180,-1,-1,182,-1,184,-1,-1,186,188,190,-1,192,194,196,-1,-1,198,200,-1,-1,202,204,206,208,210,212,214,216,218,220,222,-1,224,226,228,230,232,234,-1,236,238,-1,-1,240,242,244,-1,-1,246,-1,248,250,252,254,-1,256,-1,-1,-1,-1,258,-1,-1,260,-1,-1,-1,-1,-1,-1,-1,-1,-1,-1,-1,-1,-1,-1,-1,-1,-1,-1,-1,-1,-1,-1,-1,-1,-1,-1,-1,-1,-1,-1,-1,-1,-1,-1,-1,-1,-1,-1,-1,-1,-1,-1,-1,-1,-1,-1,-1,-1,-1,-1,-1,-1,-1,-1,-1,-1,-1,-1,-1,-1,-1,-1,-1,-1,-1,-1,-1,-1,-1,-1,-1,-1,-1,-1,-1,-1,-1,-1,-1,-1,-1,-1,-1,-1,-1,-1],"split_conditions":[-2.2733654E-1,-6.8413323E-1,1.0442804E0,-9.6766704E-1,-1.9371147E-1,3.283239E-1,1.7403852E0,-1.9371147E-1,-1.9371147E-1,2.5569439E-2,-3.5575172E-1,2.9430548E-2,4.5450586E-1,3.7411702E-1,1.8916551E0,-1.0765496E0,-1.0939164E0,5.922649E-1,-8.210969E-1,-4.9911097E-1,-4.1061327E-1,4.5450586E-1,3.7411702E-1,4.5450586E-1,4.5450586E-1,-6.6605514E-1,6.051524E-1,4.5450586E-1,4.5450586E-1,9.367102E-2,1.7809069E0,-7.546646E-2,1.5675983E0,-9.3264714E-2,-5.6102335E-2,-7.9487664E-1,-5.679349E-2,3.7411702E-1,-4.984973E-2,-1.3775303E0,-1.3062768E0,4.2898703E-1,-2.3913322E-1,1.640617E-1,-5.379138E-1,4.50959E-1,1.8916551E0,4.774412E-1,-9.829989E-1,1.5970964E0,1.3287951E0,1.640617E-1,6.2271286E-2,5.6135595E-1,5.0072217E-1,1.3199841E0,1.3287951E0,1.4052106E0,1.6255853E0,9.391928E-3,7.534509E-2,1.5869616E-2,-9.2906326E-1,1.4585598E0,1.6431911E0,-4.1523617E-2,-1.0978466E0,-5.6800462E-2,-6.782734E-2,-1.1576182E0,-1.3062768E0,-1.3553199E0,-1.2627741E0,-4.923762E-1,-1.1872953E0,7.483185E-2,8.953743E-3,-5.590744E-1,1.6244397E0,-4.2145777E-2,-3.1640526E-2,-5.6102335E-2,-2.3392108E-1,1.8612279E0,-3.453512E-2,-1.9371147E-1,-7.2713286E-2,-1.2570757E0,1.3287951E0,1.6835034E-1,6.1152957E-2,-1.6727082E-2,1.6835034E-1,-2.319608E-2,4.7908414E-2,5.162113E-1,1.5675983E0,1.3287951E0,1.3287951E0,1.3287951E0,1.3287951E0,-1.2637453E0,8.955753E-2,1.4774752E-2,6.565222E-2,1.1262768E-1,7.059252E-2,5.0096173E-2,1.0785698E0,-9.9074906E-1,-1.1694005E0,-7.7108525E-2,-2.1290183E-2,-1.0199909E0,-8.079147E-2,4.5450586E-1,-9.094448E-2,-1.699462E-2,5.6135595E-1,-5.974798E-1,-5.3086746E-1,-8.640159E-3,-9.829989E-1,-3.5575172E-1,-3.5575172E-1,3.7401677E-3,2.6707778E-2,-5.800652E-1,1.0082577E-1,-1.9952044E-2,-7.8748865E-3,3.6722902E-2,-2.666673E-1,2.1815908E-1,-9.829989E-1,-6.316047E-1,-5.5448342E-2,-5.5213342E-3,2.9407427E-1,1.5763837E0,3.6722902E-2,-5.5448342E-2,-2.8776645E-3,1.3707921E-1,-1.4854431E-1,4.50959E-1,-1.3553199E0,-1.3619413E-2,-5.5929616E-2,-2.8365707E-2,1.475552E0,3.7411702E-1,2.9120624E-2,2.4024963E-3,2.0328138E0,2.5569439E-2,3.7411702E-1,8.404725E-2,6.697889E-2,-1.1239822E-1,6.1194707E-2,7.794883E-1,6.643482E-1,4.134003E-1,3.5071373E-1,-3.1433345E-3,3.6749703E-1,1.6156895E-2,4.0987212E-2,5.932522E-3,3.132317E-2,1.1214942E0,7.6662995E-2,6.1733153E-2,4.931815E-1,-2.2837878E-3,3.2822862E-2,-4.8692066E-2,-6.0812356E-3,-5.959736E-2,-4.605359E-2,-6.600511E-2,-5.4720026E-2,-7.281904E-2,-9.425387E-2,-3.0915266E-2,-8.251071E-3,4.7216257E-3,-4.360616E-3,1.3013522E-2,2.8808236E-3,3.1923694E-3,-7.1027996E-3,8.736917E-3,1.6022379E-2,-1.077795E-3,2.8143644E-3,-1.188271E-2,-7.731806E-3,3.8661242E-3,-5.852874E-3,1.552105E-5,5.7525476E-3,-6.6421786E-3,1.5542746E-3,-2.6459748E-2,-1.8717034E-2,-1.3157501E-2,-1.9361798E-2,-3.5653926E-2,-2.5241742E-2,-9.033727E-3,-3.903881E-2,8.0698375E-3,1.903273E-3,-7.203529E-3,6.215894E-3,-1.0544004E-2,4.5022965E-4,-8.976698E-4,3.596306E-4,-5.104701E-3,-1.4304779E-2,2.813509E-2,1.5978966E-2,4.9298257E-3,1.3100499E-2,-4.3860534E-3,1.7358558E-2,1.4981723E-2,6.0697556E-3,-1.2376049E-3,5.85444E-3,3.9334954E-3,9.152723E-3,-2.9395467E-3,-1.1932954E-2,2.4248516E-2,7.818831E-3,1.50109185E-2,6.7984224E-3,1.2057976E-2,1.8441201E-3,2.118471E-2,1.1930146E-2,2.7484182E-2,4.8290826E-2,4.137459E-2,5.4078307E-2,2.819196E-2,3.965069E-2,-1.0957718E-3,8.591604E-3,8.63638E-3,2.8784012E-2,2.0166875E-3,1.871722E-2,6.92091E-3,3.7610244E-2,1.1361742E-2,4.7151376E-2],"split_indices":[0,0,0,0,2,0,0,2,2,1,0,0,2,1,1,0,0,1,0,0,0,2,1,2,2,2,0,2,2,0,0,0,1,0,1,0,0,1,0,2,2,1,0,1,0,2,1,1,1,1,2,1,1,1,1,0,2,0,2,0,0,1,2,2,1,0,1,0,0,1,2,2,1,0,2,1,0,0,1,0,0,1,0,1,0,2,0,1,2,0,0,0,0,1,0,0,1,2,2,2,2,1,0,0,0,2,0,0,0,0,2,0,0,0,0,2,0,0,1,0,0,0,1,0,0,0,0,0,1,0,0,1,0,2,1,0,2,2,2,2,1,2,0,1,0,2,2,0,0,0,2,1,0,0,1,1,1,0,0,2,0,0,0,0,0,0,0,0,0,0,0,0,0,0,1,0,0,0,0,0,0,0,0,0,0,0,0,0,0,0,0,0,0,0,0,0,0,0,0,0,0,0,0,0,0,0,0,0,0,0,0,0,0,0,0,0,0,0,0,0,0,0,0,0,0,0,0,0,0,0,0,0,0,0,0,0,0,0,0,0,0,0,0,0,0,0,0,0,0,0,0,0,0,0,0,0,0,0,0,0,0],"split_type":[0,0,0,0,0,0,0,0,0,0,0,0,0,0,0,0,0,0,0,0,0,0,0,0,0,0,0,0,0,0,0,0,0,0,0,0,0,0,0,0,0,0,0,0,0,0,0,0,0,0,0,0,0,0,0,0,0,0,0,0,0,0,0,0,0,0,0,0,0,0,0,0,0,0,0,0,0,0,0,0,0,0,0,0,0,0,0,0,0,0,0,0,0,0,0,0,0,0,0,0,0,0,0,0,0,0,0,0,0,0,0,0,0,0,0,0,0,0,0,0,0,0,0,0,0,0,0,0,0,0,0,0,0,0,0,0,0,0,0,0,0,0,0,0,0,0,0,0,0,0,0,0,0,0,0,0,0,0,0,0,0,0,0,0,0,0,0,0,0,0,0,0,0,0,0,0,0,0,0,0,0,0,0,0,0,0,0,0,0,0,0,0,0,0,0,0,0,0,0,0,0,0,0,0,0,0,0,0,0,0,0,0,0,0,0,0,0,0,0,0,0,0,0,0,0,0,0,0,0,0,0,0,0,0,0,0,0,0,0,0,0,0,0,0,0,0,0,0,0,0,0,0,0,0,0,0,0,0,0,0,0],"sum_hessian":[3.991E3,1.917E3,2.074E3,1.294E3,6.23E2,1.527E3,5.47E2,7.64E2,5.3E2,1.32E2,4.91E2,6.23E2,9.04E2,3.12E2,2.35E2,2.84E2,4.8E2,1.55E2,3.75E2,4.4E1,8.8E1,4.16E2,7.5E1,3.74E2,2.49E2,6.48E2,2.56E2,1.58E2,1.54E2,2.14E2,2.1E1,8.5E1,1.99E2,3.8E1,4.42E2,1.32E2,2.3E1,2.74E2,1.01E2,2.6E1,1.8E1,7.2E1,1.6E1,3.54E2,6.2E1,5.4E1,2.1E1,3.07E2,6.7E1,1.75E2,7.4E1,9.4E1,5.54E2,1.58E2,9.8E1,1.27E2,3.1E1,1.25E2,2.9E1,1E0,2E1,1.82E2,1.7E1,1.82E2,2.6E2,1.12E2,2E1,2.22E2,5.2E1,1E1,1.6E1,1.5E1,3E0,4.6E1,2.6E1,1.2E1,4E0,2.7E2,8.4E1,3.8E1,2.4E1,4.3E1,1.1E1,2E1,1E0,2.3E2,7.7E1,2.1E1,4.6E1,1.54E2,2.1E1,2E0,7.2E1,7.9E1,1.5E1,2.52E2,3.02E2,1.36E2,2.2E1,6.5E1,3.3E1,3.6E1,9.1E1,1E0,3E1,3.6E1,8.9E1,2.6E1,3E0,6.3E1,1.19E2,1.6E1,1E0,1.67E2,1.5E1,2.27E2,3.3E1,5E0,1.5E1,5E0,5E0,1E1,6E0,1.3E1,2E0,1E0,2E0,4.1E1,5E0,2.4E1,2E0,5E0,7E0,1.45E2,1.25E2,5.7E1,2.7E1,2.1E1,2.2E1,9E0,2E0,1.9E1,1E0,2.7E1,2.03E2,6.5E1,1.2E1,1.1E1,1E1,1E0,4.5E1,4.8E1,1.06E2,1E0,2E1,2.2E1,5E1,3E1,4.9E1,1.44E2,1.08E2,1.98E2,1.04E2,2E0,1.34E2,1E0,2.1E1,2E0,6.3E1,1E0,3.2E1,4E0,3.2E1,2.3E1,1.3E1,1E0,2E0,6E1,3E0,8.9E1,3E1,1.1E2,5.7E1,2.13E2,1.4E1,1.4E1,1E0,2E0,3E0,2E0,3E0,5E0,1E0,6E0,7E0,1E0,1E0,2.4E1,1.7E1,3E0,2E0,3E0,2E0,6E0,1E0,8.9E1,5.6E1,7.7E1,4.8E1,1.2E1,4.5E1,1E0,2.6E1,3E0,1.8E1,1.9E1,3E0,8E0,1E0,1E0,1E0,2E0,1.7E1,1.8E1,9E0,1.22E2,8.1E1,6.3E1,2E0,1E0,1.1E1,1E1,1E0,7E0,3E0,2E1,2.5E1,3.6E1,1.2E1,1.7E1,3E0,1.3E1,9E0,4.1E1,9E0,1E1,1.34E2,1.46E2,5.2E1,4.1E1,6.3E1,1E0,1E0,2E0,1.32E2,1E0,2E1,1E0,3E0,3E0,1E1],"tree_param":{"num_deleted":"0","num_feature":"3","num_nodes":"261","size_leaf_vector":"1"}},{"base_weights":[3.6549474E-5,-4.2648053E-1,4.1330382E-1,-5.647939E-1,-1.5890631E-1,2.8526583E-1,7.1047205E-1,-6.616358E-1,-5.061834E-1,-2.033332E-1,-4.368544E-2,1.13744155E-1,3.9728203E-1,5.6486696E-1,7.735058E-1,-5.9225595E-1,-7.043136E-1,-4.230805E-1,-5.4225016E-1,-8.181007E-2,-2.3476681E-1,-1.659317E-2,-1.4676635E-1,5.367213E-2,1.9710533E-1,6.3215864E-1,3.6790207E-1,6.310065E-1,4.590955E-1,7.207262E-1,8.718104E-2,-7.205476E-2,-5.3230685E-1,-8.672237E-2,-6.8329245E-1,-4.8270243E-1,-3.5959694E-1,-5.8687335E-1,-4.932051E-1,3.595376E-2,-1.131725E-1,-2.1320151E-1,-3.5474312E-1,8.658255E-2,-4.2036794E-2,-1.7728534E-2,-1.6969053E-1,7.555401E-2,-4.7375E-2,2.2459957E-1,1.3043417E-1,6.6961193E-1,4.2312822E-1,4.128943E-1,2.718742E-1,7.00117E-1,5.558864E-1,3.6394408E-1,5.1323898E-2,8.011687E-1,6.471851E-1,-5.06275E-2,-6.7194134E-2,-6.4747256E-1,-7.820273E-2,-3.7661707E-1,-5.276652E-2,-3.036279E-1,-4.0204704E-1,-5.3174634E-2,-6.279961E-2,-4.749135E-1,-6.0454167E-2,1.4566126E-2,2.4254704E-2,-8.1516534E-2,-1.7578426E-1,-1.903568E-1,-2.9619315E-1,-3.0224103E-1,-4.0985614E-2,1.3351154E-1,2.3412874E-2,-1.15072384E-1,-1.0974956E-2,-8.020529E-3,2.3303222E-2,-2.535591E-2,-1.3735826E-1,1.0381319E-1,-6.6695213E-3,2.8651094E-2,-8.4203675E-2,3.462172E-2,2.0921636E-1,-1.5611951E-2,1.4100267E-1,7.591364E-2,5.978438E-2,1.6226435E-2,4.4709247E-2,4.6609655E-1,3.6436448E-1,2.4225166E-1,3.2548124E-1,3.9019156E-1,7.233057E-2,2.7189705E-1,5.82906E-1,5.1004887E-3,3.7267524E-1,8.421117E-2,6.1378907E-2,6.761451E-1,5.174557E-2,-6.292438E-2,-8.0775894E-2,-3.9595369E-1,-9.87649E-2,-3.1319445E-1,-1.3958387E-2,-4.1374758E-2,-2.6257443E-1,-4.8825502E-1,-3.9114397E-2,-8.5753035E-3,5.3242862E-2,-1.4473796E-3,-9.316313E-2,-1.3813515E-2,-2.0819695E-1,-2.2721541E-1,-1.6351117E-1,-2.5929815E-1,-3.5075647E-1,-3.0860914E-2,-4.9230577E-3,6.272908E-2,1.6641751E-1,-2.5957108E-3,7.074747E-2,-7.7112116E-2,-2.382943E-1,4.3505143E-2,-3.945615E-2,3.450513E-3,-1.0752202E-3,-1.0606118E-1,-2.2400498E-1,1.9898133E-1,7.893302E-2,2.8921733E-2,-5.5088583E-2,-1.1138916E-3,5.852747E-2,-1.6815615E-1,-5.7960674E-2,2.4906349E-1,1.5086846E-1,6.6478655E-2,1.6799223E-1,4.1890743E-1,5.356994E-1,2.8150496E-1,3.8417643E-1,2.6709864E-2,1.9266494E-1,3.4580182E-2,2.3669396E-1,4.419304E-2,6.574869E-3,4.9300402E-2,-1.8724696E-1,6.31601E-2,4.308238E-1,3.8576927E-2,1.2623914E-1,7.116311E-2,5.644123E-2,-3.4150813E-2,-4.7438685E-2,-2.4500353E-2,1.6997552E-2,-3.2235716E-2,-1.589286E-2,-2.776893E-2,-7.838512E-3,-4.6907257E-2,-5.669288E-2,1.1111043E-3,-6.056893E-3,1.1284828E-2,1.4566343E-3,-5.0141336E-3,5.978191E-3,-1.1905297E-2,-6.4582373E-3,-2.185878E-2,-4.694891E-3,-1.24747E-2,-2.3206754E-2,-2.2233019E-2,-1.480865E-2,-2.8458482E-2,-1.956795E-2,-8.582043E-3,-3.5821963E-2,8.795119E-3,2.1824718E-3,1.0183199E-2,2.032668E-2,2.407435E-3,-4.861939E-3,8.218038E-3,1.2507916E-3,-5.4743937E-3,-1.1413727E-2,-2.522451E-2,-7.0319413E-3,-6.517104E-4,8.214082E-3,-8.6313365E-3,-1.5166402E-5,-1.205318E-2,-1.4428139E-3,-3.2808375E-2,-1.3757248E-2,2.3874301E-2,1.2193227E-2,4.3963986E-3,1.1945116E-2,7.3201205E-3,-2.6201927E-3,-7.5862594E-3,6.3953972E-3,-3.3057404E-3,2.1862031E-3,3.5232068E-3,8.466256E-3,7.0568803E-3,-2.0681787E-2,-1.4061825E-3,-8.725664E-3,-1.2854409E-2,2.5494898E-2,6.2406114E-3,1.848666E-2,8.618841E-3,-9.888267E-4,1.7827213E-2,6.2894262E-3,2.5577117E-2,4.2997744E-2,4.3451894E-2,5.67528E-2,3.0344147E-2,1.6218482E-2,4.0950134E-2,3.297549E-2,-2.684768E-3,2.0098409E-2,5.6359055E-3,2.4358151E-2,5.3100585E-4,-2.861805E-2,9.340954E-3,4.7235373E-2,2.1105481E-2,-2.169609E-3],"categories":[],"categories_nodes":[],"categories_segments":[],"categories_sizes":[],"default_left":[0,0,0,0,0,0,0,0,0,0,0,0,0,0,0,0,0,0,0,0,0,0,0,0,0,0,0,0,0,0,0,0,0,0,0,0,0,0,0,0,0,0,0,0,0,0,0,0,0,0,0,0,0,0,0,0,0,0,0,0,0,0,0,0,0,0,0,0,0,0,0,0,0,0,0,0,0,0,0,0,0,0,0,0,0,0,0,0,0,0,0,0,0,0,0,0,0,0,0,0,0,0,0,0,0,0,0,0,0,0,0,0,0,0,0,0,0,0,0,0,0,0,0,0,0,0,0,0,0,0,0,0,0,0,0,0,0,0,0,0,0,0,0,0,0,0,0,0,0,0,0,0,0,0,0,0,0,0,0,0,0,0,0,0,0,0,0,0,0,0,0,0,0,0,0,0,0,0,0,0,0,0,0,0,0,0,0,0,0,0,0,0,0,0,0,0,0,0,0,0,0,0,0,0,0,0,0,0,0,0,0,0,0,0,0,0,0,0,0,0,0,0,0,0,0,0,0,0,0,0,0,0,0,0,0,0,0,0,0,0,0,0,0,0,0,0,0,0,0,0,0,0,0,0,0,0,0,0,0,0,0,0,0,0,0,0,0,0,0],"id":7,"left_children":[1,3,5,7,9,11,13,15,17,19,21,23,25,27,29,31,33,35,37,39,41,43,45,47,49,51,53,55,57,59,-1,-1,61,-1,63,65,67,69,71,73,75,77,79,81,83,85,87,89,91,93,95,97,99,101,103,105,107,109,-1,111,113,-1,-1,115,-1,117,-1,119,121,-1,-1,123,-1,125,-1,127,129,131,133,135,-1,137,139,141,143,-1,145,-1,147,149,151,153,155,-1,157,-1,159,-1,-1,-1,-1,161,163,165,167,169,-1,171,173,-1,175,-1,-1,177,-1,-1,-1,179,181,183,-1,-1,185,187,-1,189,191,193,195,-1,197,199,201,203,205,-1,-1,207,209,211,213,215,217,219,221,-1,-1,223,225,227,229,231,233,235,237,239,241,243,245,247,249,251,253,255,257,-1,259,-1,261,-1,-1,-1,263,-1,265,-1,267,-1,-1,-1,-1,-1,-1,-1,-1,-1,-1,-1,-1,-1,-1,-1,-1,-1,-1,-1,-1,-1,-1,-1,-1,-1,-1,-1,-1,-1,-1,-1,-1,-1,-1,-1,-1,-1,-1,-1,-1,-1,-1,-1,-1,-1,-1,-1,-1,-1,-1,-1,-1,-1,-1,-1,-1,-1,-1,-1,-1,-1,-1,-1,-1,-1,-1,-1,-1,-1,-1,-1,-1,-1,-1,-1,-1,-1,-1,-1,-1,-1,-1,-1,-1,-1,-1,-1,-1,-1,-1,-1,-1],"loss_changes":[7.038283E2,7.263315E1,7.696036E1,7.015442E0,3.4259014E0,2.7218353E1,5.161682E0,1.0189362E0,2.2013702E0,1.8296318E0,5.225915E-1,2.8037348E0,5.688202E0,1.0254898E0,1.566391E0,1.0854187E0,4.1767883E-1,7.7267075E-1,9.4052124E-1,3.7709838E-1,9.178982E-1,3.9741427E-1,1.1235708E-1,7.2882074E-1,4.014759E-1,4.525833E-1,3.1929321E0,1.974678E-1,2.0474815E-1,1.1438293E0,0E0,0E0,1.4689636E-1,0E0,4.344101E-1,4.022789E-1,1.749134E-1,3.2122803E-1,2.7090454E-1,9.3674935E-2,1.4423347E-1,5.6548023E-1,4.1056633E-2,8.580881E-2,2.7324003E-1,1.9813756E-2,5.4656386E-2,6.2805605E-1,1.67609E-1,2.3626041E-1,2.3703277E-1,4.730606E-2,3.3726692E-2,1.1701736E0,3.133812E-1,1.1304283E-1,2.9423332E-1,6.569338E-2,0E0,4.8046875E-1,2.2118378E-1,0E0,0E0,7.901001E-2,0E0,1.8117523E-1,0E0,4.730463E-2,2.3288727E-3,0E0,0E0,7.724762E-2,0E0,1.9252308E-2,0E0,5.1154494E-2,2.968669E-3,2.2011471E-1,4.795456E-2,3.797674E-2,0E0,2.9156566E-2,1.7419122E-2,1.5001598E-1,1.3515915E-1,0E0,2.2784343E-3,0E0,4.674831E-2,4.6022153E-1,1.2222391E-1,1.7850593E-2,7.838014E-2,0E0,3.0884886E-1,0E0,1.2761664E-1,0E0,0E0,0E0,0E0,5.770111E-1,3.449402E-1,1.4936829E-1,7.150936E-2,7.166135E-2,0E0,8.0295324E-1,1.2038994E-1,0E0,4.8106194E-2,0E0,0E0,7.810974E-2,0E0,0E0,0E0,2.655983E-4,1.9884555E-1,2.5096416E-2,0E0,0E0,5.053282E-4,4.042816E-2,0E0,1.5002887E-2,1.6798854E-2,2.6849512E-2,2.7828902E-2,0E0,9.843588E-3,2.4249077E-2,1.0679436E-1,1.670432E-2,1.8688917E-2,0E0,0E0,5.3023472E-3,5.4801404E-3,1.3445023E-2,2.3013335E-3,1.7769054E-2,1.0093153E-3,5.8514602E-2,1.0496373E-1,0E0,0E0,2.6106626E-2,8.839428E-3,9.649706E-2,2.2286618E-1,1.0199271E-1,7.9041444E-2,8.79595E-3,3.1054355E-3,9.766054E-2,3.9926887E-2,2.2612143E-1,1.779393E-1,3.095571E-2,4.280746E-2,1.6090965E-1,5.9337616E-2,9.9981785E-2,1.6817093E-1,0E0,1.11313105E-1,0E0,9.871244E-3,0E0,0E0,0E0,